tree
version=v4
num_class=1
num_tree_per_iteration=1
label_index=0
max_feature_idx=21
objective=binary sigmoid:1
feature_names=annual_income debt_to_income_ratio credit_score loan_amount interest_rate gender marital_status education_level employment_status loan_purpose grade_subgrade loan_to_income_ratio monthly_debt payment_to_income subgrade_numeric interest_per_grade credit_score_bin credit_score_bin_num expected_score score_grade_diff annual_income_log loan_amount_log
feature_infos=[6002.4300000000003:393381.73999999999] [0.010999999999999999:0.56599999999999995] [395:849] [502.91000000000003:48954.699999999997] [3.79:20.989999999999998] -1:0:1 -1:2:1:0:3 -1:0:1:2:3:4 -1:0:4:2:1:3 -1:2:6:1:4:3:0:5:7 -1:12:13:11:10:14:15:17:18:16:19:6:5:9:7:8:23:22:20:21:24:29:25:28:27:26:4:2:1:3 [0.0024877948855777893:1.8658062641836599] [7.398627499999999:9765.6690833333323] [3.6882746374416491:710.70571788098414] [1:30] [0.27250000000000002:16.239999999999998] [0:4] [1:5] [557.91056910569102:818.12639623750738] [-163.25235441091672:188.08943089430898] [8.7000862515377175:12.882538310054933] [6.2223976806970214:10.798671086531822]
tree_sizes=22530 25333 17233 24239 24289 24365 15348 14525 15768 26895 18527 24963 26693 14769 13651 25926 13674 25008 14116 24629 12568 18977 12447 12104 26445 12087 12740 26322 13495 24021 13497 9809 21617 11376 13879 24789 11085 14183 26272 22057 11741 13675 12918 13633 13602 17702 13031 11463 26132 20077 13701 18380 13050 25279 11531 26183 21154 15525 14130 11633 12938 15537 14865 16768 13077 20359 13680 11505 14377 12617 11817 17717 15058 11702 16551 26140 13885 13698 12832 17565 11587 20372 13703 19109 13757 26019 11798 13572 25262 25264 25995 9605 14864 12928 12889 12999 13883 16023 18731 22860 12994 14115 13212 13059 14434 11347 12099 25219 20634 14506 17700 12633 19291 20561 13842 14375 15955 14857 8514 25772 16667 14503 12221 17122 17737 14334 11529 18161 17292 17076 15285 22682 17046 9270 14574 22840 17609 25288 20744 10279 20835 18630 18602 17267 12343 10739 19695 11351 8946 15643 13729 9532 9211 13519 13407 18928 12275 10872 21363 12236 15217 13909 7276 8144 16581 7829 16585 13774 6448 10675 11291 7106 8027 17076 10948 5849 18708 17294 8199 13224 16153 13866 20025 6644 14372 13320 17429 24447 14984 17610 20281 10215 11506 8571 16533 5413 8869 8973 7980 7973 6891 6459 14056 13390 11072 4883 3331 8390 15525 10308 10339 26203 12283 9964 8743 17252 15212 8537 17471 7501 7568 6634 8155 10939 6725 14740 11260 6506 11769 9304 15126 6599 5304 16370 18263 7409 6470 9979 3578 14970 6959 15139 8387 4921 2301 4490 1084 408 4822 4207 3010 2686 3731 7005 3026 3549 387 1505 6468 389 3721 3277

Tree=0
num_leaves=219
num_cat=15
split_feature=8 14 16 12 8 12 12 16 20 16 12 19 12 20 20 12 12 20 20 12 12 12 12 20 8 20 20 12 19 19 20 16 8 12 12 20 12 12 12 8 12 20 12 20 12 12 14 12 12 20 20 20 14 8 12 19 12 12 20 12 14 20 14 19 20 14 19 14 19 20 12 14 12 19 14 19 19 12 19 19 20 19 19 14 19 8 19 12 20 20 14 19 12 19 14 19 14 19 12 20 14 14 20 12 3 12 20 18 20 14 12 18 10 12 20 19 18 12 19 19 20 12 8 12 12 19 20 12 15 19 12 16 19 14 19 12 12 20 20 10 19 20 12 20 19 12 19 14 19 19 12 14 14 12 15 12 19 12 20 19 20 12 19 14 19 10 20 10 19 12 18 19 10 10 20 12 12 16 12 12 20 20 12 3 14 15 14 19 14 19 19 15 12 3 12 19 19 12 12 12 19 3 12 12 12 19 15 20 19 10 12 20 15 12 12 20 19 20
split_gain=212400 6664.42 6121.32 4078.34 2203.76 1781.94 1593.84 1119.69 1031.7 994.324 752.947 891.606 684.144 2419 630.637 611.294 603.61 370.41 346.98 1074.2 269.48 243.764 242.77 781.342 229.79 220.709 211.317 194.669 186.8 174.345 171.8 168.977 160.282 154.704 154.318 160.685 143.103 135.091 129.341 125.965 122.831 121.714 421.148 251.017 129.17 120.377 119.544 118.328 105.994 104.786 101.713 100.085 98.0559 94.4015 92.867 92.157 90.3742 82.3356 79.0454 78.0346 74.6381 69.0944 67.0658 66.1479 62.1182 61.4558 61.2598 60.6928 60.0464 54.4158 95.8078 54.0879 53.8902 53.5529 46.8521 44.6553 41.247 40.6628 44.1984 39.6738 39.4483 38.7372 38.3876 37.8111 37.229 37.1163 37.7324 35.5775 35.5546 33.0969 32.8728 32.7721 32.5849 31.5477 31.4141 36.8969 30.7401 30.0925 29.8021 29.002 28.2956 28.0942 27.4233 27.7736 27.0624 26.7517 45.9208 26.1471 25.7937 25.4479 24.5084 24.3852 24.1361 23.5115 22.0964 21.8686 21.7312 21.6626 21.2723 21.0863 20.4718 21.6666 20.1722 20.8641 19.8379 19.1833 19.1202 18.0553 17.8309 16.5437 16.4999 16.3138 15.8644 15.8384 15.7955 15.7507 15.6742 15.3888 15.2478 14.4389 14.3549 14.2617 14.1482 25.1051 13.9885 13.6877 13.5251 13.4549 13.3693 13.2777 13.1423 13.1006 12.9472 12.8064 12.7375 12.6486 11.5552 11.0577 10.326 10.2857 9.80629 9.77938 9.53553 9.43406 9.42101 9.39699 9.34688 9.13392 9.05156 8.17467 7.71667 7.70707 7.65689 7.57096 7.26601 14.2916 7.11684 6.72852 6.70256 6.61109 6.58604 6.3738 16.0305 6.34578 6.04801 5.90877 5.7932 5.72512 5.55838 5.51369 5.01276 5.00323 4.75575 4.67685 4.59794 6.03883 4.57779 4.37425 4.14618 3.95332 3.83913 3.78522 3.7576 3.48651 3.44083 3.22885 3.04886 2.98772 2.58049 2.3501 2.31822 2.25034 2.03689 1.56168 1.16163 1.1593 1.08386 1.07596
threshold=0 10.500000000000002 1.5000000000000002 778.47222125000008 1 838.96263125000007 575.83565500000009 1.5000000000000002 11.00201292076007 1.5000000000000002 463.75503000000009 0.16077670982627981 375.39942166666674 10.472255191379734 11.060802381711193 610.69554833333348 1186.5575608333336 10.741090641459033 10.040359017153484 233.34406208333334 1355.9175825000002 544.87277000000017 498.92072000000013 10.472255191379734 2 11.45608724692076 10.906106428049005 167.73970500000004 4.9166154700922684 4.5523201029026845 11.212769178683514 2.5000000000000004 3 999.96471875000009 482.96088166666675 10.040359017153484 1924.87715 983.90802583333345 165.56247416666668 4 849.67265000000009 10.305297153661934 251.17540000000002 9.9183291181860032 380.87883791666673 671.08910166666681 22.500000000000004 967.80114458333344 549.7720608333334 9.7286200451585554 11.344394558523293 10.694905865858454 20.500000000000004 5 357.45311500000008 11.160776709826282 2566.2623475000005 1355.9175825000002 9.5556010199853585 359.85475500000001 10.500000000000002 10.694905865858454 24.500000000000004 2.2248236500603302 9.6992553000301225 20.500000000000004 -2.5991017027839685 10.500000000000002 22.133930012530758 10.894741497883686 708.91697333333343 25.500000000000004 287.58069458333341 -19.297986059587682 26.500000000000004 13.800556891069563 -6.8998238252512456 650.47884375000012 -1.6175618483822516 9.1607767098262816 11.220454946186647 -6.8998238252512456 -0.8392232901737201 10.500000000000002 -1.8660699874692452 6 11.587619979086925 163.29661166666668 10.318499279652892 11.198863482241611 23.500000000000004 -2.4476798970973159 999.96471875000009 2.4585795420148888 10.500000000000002 -2.199443108930438 25.500000000000004 -16.985831933684945 610.69554833333348 10.930019261219352 22.500000000000004 10.500000000000002 10.863504984186589 327.17942541666673 24991.970000000005 592.20101875000012 10.896080775416261 593.90126938956121 10.766067121965408 10.500000000000002 1214.8059041666668 594.46786053747553 7 1583.4636816666668 10.902121021905653 -0.9481638302240184 594.19609482948272 1137.8029366666669 -20.069541601313798 12.40904055152305 10.772722630108509 245.78057750000002 8 191.60205083333338 337.49422125000007 -0.65411266338549001 10.708931189402202 172.1154279166667 2.4929166666666673 -2.199443108930438 181.038375 2.5000000000000004 -5.4476798970973155 26.500000000000004 -20.069541601313798 1664.8873725000001 78.560794583333333 10.970444729579606 10.411137188183671 9 1.4008982972160313 10.318499279652892 671.08910166666681 10.325792570089694 -4.2585586188175162 183.27534375000005 -19.027073864060295 26.500000000000004 13.800556891069563 -16.985831933684945 263.37986750000005 16.500000000000004 18.500000000000004 525.30779041666676 0.69018518518518535 1664.8873725000001 22.516480063435669 221.85886125000005 11.824354141709069 4.0518361697759824 10.853292844547727 160.94609208333335 4.5523201029026845 16.500000000000004 21.450437287707874 10 11.566164337990829 11 -4.0695416013138006 82.331427500000018 701.48351993656445 -32.751951246532933 12 13 10.866021779998833 314.84766250000013 1355.9175825000002 2.5000000000000004 520.8966833333335 1246.318549166667 10.902121021905653 11.046454149750904 359.85475500000001 13679.690000000002 10.500000000000002 2.0615476190476194 10.500000000000002 26.259036416852499 25.500000000000004 -14.751951246532938 -5.4476798970973155 0.91677083333333342 98.578999583333342 14095.435000000003 322.20690708333342 22.248048753467064 25.450437287707874 82.331427500000018 490.90929041666669 1186.5575608333336 10.091139402346245 17360.935000000001 372.61771291666673 1137.8029366666669 1072.9999329166669 10.091139402346245 0.98027777777777791 10.896080775416261 -2.199443108930438 14 365.15005083333341 10.305297153661934 0.83902380952380973 923.43090375000008 233.34406208333334 11.137667201503568 -20.632852181006111 11.264095512067566
decision_type=1 2 2 2 1 2 2 2 2 2 2 2 2 2 2 2 2 2 2 2 2 2 2 2 1 2 2 2 2 2 2 2 1 2 2 2 2 2 2 1 2 2 2 2 2 2 2 2 2 2 2 2 2 1 2 2 2 2 2 2 2 2 2 2 2 2 2 2 2 2 2 2 2 2 2 2 2 2 2 2 2 2 2 2 2 1 2 2 2 2 2 2 2 2 2 2 2 2 2 2 2 2 2 2 2 2 2 2 2 2 2 2 9 2 2 2 2 2 2 2 2 2 1 2 2 2 2 2 2 2 2 2 2 2 2 2 2 2 2 9 2 2 2 2 2 2 2 2 2 2 2 2 2 2 2 2 2 2 2 2 2 2 2 2 2 9 2 9 2 2 2 2 9 9 2 2 2 2 2 2 2 2 2 2 2 2 2 2 2 2 2 2 2 2 2 2 2 2 2 2 2 2 2 2 2 2 2 2 2 9 2 2 2 2 2 2 2 2
left_child=2 6 3 12 7 22 29 48 24 -6 11 -11 18 32 31 28 30 21 19 38 80 96 41 60 -5 53 45 197 87 39 37 47 -14 51 35 100 113 132 90 157 75 42 94 64 184 109 69 61 169 107 73 104 63 -18 128 74 97 89 130 161 125 156 -37 102 124 -59 99 -47 -29 70 -19 79 139 212 114 185 -66 78 -12 -53 92 141 137 -46 -69 -23 -87 -9 98 -55 136 101 216 -17 -4 127 178 155 -36 134 -34 -43 103 -20 188 149 -107 150 179 -25 -101 193 183 165 -35 -71 204 126 199 -109 121 189 -31 -124 -44 173 162 -96 145 -111 -40 140 172 160 -49 -110 -1 -63 -123 -51 -75 153 143 -83 -60 208 -58 -134 -73 -48 -21 -113 -90 -62 -118 -52 206 -2 -148 180 -57 -30 -33 -74 -61 -27 -99 -115 186 -3 -144 -122 -10 -24 175 -65 -95 -120 -15 -68 -119 182 -103 213 -45 -8 -28 -163 -26 -54 -147 -143 -92 -38 -125 -196 -84 -13 -98 -94 217 -185 -70 -82 -39 -171 -7 -128 -41 -159 -89 -175 -22 -32 -97 -133 -16 -114
right_child=1 4 5 8 9 14 40 15 16 10 77 27 13 17 20 93 25 46 52 49 50 85 23 26 33 36 168 68 59 122 112 117 34 55 88 62 111 116 58 54 -42 91 43 44 83 67 105 66 -50 72 56 71 120 57 -56 133 146 65 144 164 81 82 -64 174 76 -67 108 84 202 115 -72 148 163 131 -76 -77 -78 -79 -80 -81 203 142 196 -85 -86 86 -88 210 152 -91 192 -93 118 176 95 214 198 166 -100 110 -102 181 -104 -105 -106 106 -108 119 135 129 -112 151 200 167 -116 -117 154 159 177 -121 171 138 123 194 -126 -127 207 -129 -130 -131 -132 215 147 -135 -136 -137 -138 -139 -140 -141 -142 191 170 -145 -146 190 158 -149 -150 -151 -152 -153 -154 -155 -156 -157 -158 209 -160 -161 -162 187 -164 -165 -166 -167 -168 -169 -170 205 -172 -173 -174 211 -176 -177 -178 -179 -180 -181 -182 -183 -184 201 -186 -187 -188 -189 -190 -191 -192 -193 -194 -195 195 -197 -198 -199 -200 -201 -202 -203 -204 -205 -206 -207 -208 -209 -210 -211 -212 -213 -214 -215 -216 -217 -218 -219
leaf_value=1.4516070810621935 1.4184843159799816 1.2337143903798349 1.4671645154596897 1.4491434038545026 1.0275645635397039 1.3577124693296294 1.1638185991157939 1.2990642496876155 1.4075853310963877 1.0653955416676364 1.0440230242053441 1.2951005966782372 1.4479664582489693 1.4280052884730199 1.4270101209976327 1.0949890396536104 1.4369611009813494 1.4292999526594401 1.4357684765300771 1.3161618870531184 1.3709137808703411 1.436112266133688 1.3744601485929711 1.4624728964694726 1.2875789582993826 1.378932074831922 1.4647121640316818 1.1366842233063925 1.385901224455349 1.4225979882308573 1.3882716551067524 1.3786783014487343 1.3055520166867591 1.2649991833762759 1.304877069924592 1.372418383454497 1.2685244226347103 1.349122787149716 1.3906051253710905 1.3293542917656433 1.0980790603564148 1.4660640371283664 1.378932074831922 1.4637544891306105 1.4469838317212278 1.449755201298395 1.3897859629127634 1.3112296661134122 1.061732649576578 1.3947485124125043 1.4233568441488842 1.3358701904155816 1.4084272563449505 1.3292281683504967 1.2348581807107957 1.3159601314742435 1.327969884138132 1.3199078920298482 1.3988652445244401 1.2350234194496443 1.378932074831922 1.3810040531747867 1.3081284979586774 1.4485466535699103 1.3869708906609393 1.2630612583897545 1.3624261478679383 1.3973351510219192 1.212475823762089 1.4331397501007823 1.3719868728557665 1.2743294617313146 1.378932074831922 1.3649694349792767 1.2019906115915362 1.3097329158375233 1.426514356649732 1.036720880421593 1.1003699240031422 1.370742177345488 1.4589854190234264 1.3817091099847927 1.4168617374352335 1.4098349478573289 1.4256848715669415 1.3508925450296836 1.3855703657169214 1.2367659963550814 1.351879888990281 1.3764022904923625 1.4295927319325639 1.465136941283891 1.3992709882093772 1.1874407067985866 1.4562628450237984 1.4630808253410044 1.389182594254937 1.4253807981676807 1.2601715960569186 1.3859125680081119 1.2249613396847145 1.4582895152658761 1.44764452601247 1.4165016039453064 1.3716136052593364 1.3611455064664031 1.4109033339577193 1.3020922541784523 1.390904536170348 1.4346732051558766 1.3404035081949375 1.3817275738029151 1.41013608698016 1.3489841633715931 1.3030208175128772 1.4443804614746596 1.37914262326883 1.3672825928628864 1.4222999951714714 1.3621912269096728 1.378932074831922 1.3996291367928022 1.4121567958346528 1.378932074831922 1.3324440262859263 1.4457008887417582 1.4274019174168042 1.4450508458115341 1.378932074831922 1.4512315308809403 1.3460982022120045 1.3858741481170382 1.422525890771436 1.2696063255945189 1.348336794377955 1.3282793110000439 1.4367933071890735 1.4150082491623954 1.4211836755148395 1.3580580594622045 1.3969074660305432 1.3963915127005813 1.3400116842919978 1.4259247032201408 1.4247165060078488 1.2755700304702711 1.3576159453894219 1.378932074831922 1.3502589346513638 1.4219916883089978 1.2112414452172016 1.3439728668947759 1.3128310351522896 1.3375073903301751 1.3516535141009138 1.3824920566555525 1.39429725821885 1.3538981884877426 1.4000070591595417 1.4259526253273924 1.3548818575247616 1.3328498509647995 1.4276770469463811 1.329424845362821 1.3124619677898166 1.4222961021337186 1.4473037660442867 1.3904811367170293 1.4638289144242458 1.1066989640894027 1.378932074831922 1.438096706125398 1.378932074831922 1.3930554212473758 1.4555334449199027 1.4347838974628946 1.0791657436543385 1.4480319552446077 1.4025629340756169 1.3079849021345553 1.4013960407498312 1.4630714355772805 1.4495218900980205 1.4287940304447826 1.449509026112048 1.2627382781844962 1.4536102926874694 1.378932074831922 1.2316402603766023 1.4315345050755677 1.3230307943856152 1.364770593754987 1.4110819958258254 1.3331756210472321 1.3236788920105551 1.378932074831922 1.4421705350353646 1.2352663809907978 1.3535538855826796 1.3724366432576816 1.4465002002467402 1.3882620595850117 1.1551997193281758 1.446327613113745 1.2982969126673207 1.1479824250922368 1.3200847837630878 1.4514547161610076 1.3778046174881959 1.378932074831922 1.1937126621423597 1.4324086510303262 1.3214820889768937 1.3640767793098296 1.447323456160964 1.4230571773539789 1.4533174478197097 1.4323043446691159
leaf_weight=716.60777945816517 32.436043336987495 14.457922533154486 3091.1286733448505 59.006502270698547 4187.3929204344749 75.802352949976921 101.05571840703487 46.739839494228363 72.260219424962997 858.49770593643188 267.72505994141102 33.64990022778511 51.861404120922089 657.47040218114853 76.432897016406059 135.7771941870451 30.908230528235435 1503.451516315341 3593.1916613131762 21.763288930058479 19.914062216877937 25.529154032468796 35.411096125841141 640.80630391836166 182.54496189951897 26.899330824613571 790.92911213636398 429.62904934585094 37.095228835940361 47.689603939652443 23.926910266280174 43.921984016895294 121.82624979317188 308.80622690916061 384.51089753210545 644.6980773806572 30.278563871979713 37.340018257498741 57.649925336241722 66.652146890759468 200.77196937799454 3047.5430192053318 184.83901953697205 480.402637809515 208.7378526777029 315.19267910718918 96.993735387921333 123.91280794143677 350.47246953845024 164.59871765971184 89.199228852987289 578.73745456337929 117.14293551445007 180.04018492996693 130.1164770424366 83.919589504599571 29.712799251079559 413.97101067006588 212.93334293365479 43.53315843641758 43.439424455165863 276.21327605843544 100.46407018601894 3527.3464099168777 262.88117960095406 154.2032168507576 79.816517114639282 511.21903808414936 133.41557596623898 2056.692421913147 160.35204781591892 82.320416674017906 33.242649033665657 118.439120054245 57.351762801408768 22.245409786701202 343.30806034803391 1167.8976337015629 241.98562528192997 272.60680179297924 1145.7046875506639 238.87589003145695 267.92348751425743 674.1948928385973 551.57432109117508 550.21350601315498 217.1143559217453 119.99588739871979 112.01829995214939 160.19002474844456 250.09291251003742 12476.880290836096 68.889760479331017 84.905327767133713 3529.5392755866051 5024.8921218514442 71.94231516122818 296.74208895862103 138.94439178705215 143.56497123837471 41.445722877979279 5193.6136536300182 1073.796591386199 544.67971552908421 24.490920066833496 122.9367211908102 375.2742665708065 172.01931458711624 473.96968287229538 864.59943051636219 99.815100505948067 47.694429695606232 80.289425164461136 22.806348651647568 192.09583857655525 2730.7137364447117 131.20150354504585 50.346752464771271 377.03195282816887 52.675906509160995 20.394428253173828 327.10780623555183 43.998169794678688 43.279594913125038 62.87750768661499 106.13516734540462 168.28137770295143 1555.2672951072454 23.52667835354805 924.06041522324085 117.3194358497858 24.970847398042679 341.86564612388611 27.54786179959774 211.43053631484509 20.558206140995026 2045.4372320920229 103.41192325949669 615.48874662816525 69.619741693139076 177.28447666764259 44.401033937931061 38.06341889500618 102.76734063029289 413.56097833812237 86.576738029718399 48.58116951584816 36.454155847430229 27.382767796516418 1038.8467071801424 30.282073512673378 179.87421351671219 141.33876398205757 184.21286252140999 184.84998716413975 101.33106827735901 20.072575643658638 22.324227795004845 72.743656396865845 51.303097486495972 117.47794927656651 58.300211131572723 27.457637459039688 214.89165830612183 32.765353932976723 243.59239698946476 401.09807349741459 135.93555870652199 3559.1893400102854 321.35775017738342 55.804646968841553 1007.4212593883276 130.23857794702053 46.248067125678062 1142.0999681055546 713.019292101264 15.587258249521254 127.81130287051201 109.03491176664829 22.004568710923195 58.290998324751854 1652.591947004199 2412.0397549122572 35.325697541236877 1438.8420570641756 17.187747195363045 2432.0102611780167 33.242649033665657 31.967522338032722 1243.0755523890257 53.402816787362099 62.953693464398384 312.00573977828026 35.092753157019615 39.751061245799065 21.519376918673515 108.30361443758011 139.91521407663822 21.922241061925888 28.425388813018799 267.34543915092945 53.314347267150879 51.57333180308342 565.5207295268774 41.038032978773117 135.44130301475525 37.342211782932281 176.22123651206493 19.833489388227463 41.03057499229908 103.6200103610754 32.916848078370094 64.08346788585186 27.542597338557243 221.74370947480202 85.506039887666702 451.99260367453098 480.51348128914833
leaf_count=3033 141 77 12866 246 25902 355 563 232 318 5162 1637 168 216 2854 331 799 129 6519 15475 107 93 106 164 2680 912 124 3300 2443 167 205 107 202 599 1574 1889 2966 155 177 259 321 1178 12700 844 2006 887 1336 437 606 2114 738 388 2760 518 865 682 409 144 2005 952 229 198 1258 493 14984 1190 788 372 2291 713 8882 739 417 153 550 310 110 1492 7176 1417 1257 4811 1087 1176 2983 2400 2586 984 628 527 735 1083 52052 307 464 14868 21010 324 1291 712 650 220 21830 4565 2393 114 573 1658 848 2138 3727 475 216 354 110 946 11652 598 234 1646 246 92 1462 193 199 302 451 730 6631 108 3913 555 112 1492 141 997 100 8799 454 2691 327 794 198 182 446 1801 438 228 167 130 4539 163 852 690 878 869 460 89 107 324 222 551 280 118 1032 161 1061 1705 612 14869 1872 254 4327 595 207 4814 3073 94 542 485 109 259 6909 10235 152 6105 89 10274 153 169 5377 259 293 1378 169 193 99 462 733 104 132 1137 240 290 2407 204 764 182 745 92 187 563 141 311 129 942 372 1909 2076
internal_value=1.40469 1.08866 1.4377 1.41405 1.06865 1.45176 1.26466 1.15493 1.3577 1.05181 1.08146 1.117 1.42458 1.41061 1.4174 1.22077 1.3809 1.42464 1.43309 1.41636 1.43427 1.39322 1.45626 1.44683 1.31668 1.34898 1.45258 1.17357 1.26907 1.3298 1.40833 1.38937 1.33208 1.31259 1.32824 1.34869 1.37893 1.38657 1.43093 1.30609 1.13718 1.45886 1.454 1.43202 1.44252 1.43867 1.43103 1.37957 1.09554 1.33751 1.40947 1.32911 1.43894 1.32587 1.28861 1.28692 1.4223 1.32177 1.40423 1.32333 1.38513 1.3996 1.36338 1.44243 1.39723 1.30399 1.36465 1.42108 1.15378 1.43553 1.42361 1.34003 1.35865 1.3817 1.27061 1.19505 1.40983 1.04673 1.07022 1.34671 1.44752 1.37484 1.40824 1.41893 1.41231 1.36456 1.3613 1.22897 1.30403 1.35062 1.43728 1.4622 1.43601 1.1248 1.45996 1.45778 1.41996 1.43113 1.29248 1.34786 1.28338 1.45921 1.43631 1.4333 1.28637 1.41313 1.39806 1.30167 1.38047 1.44853 1.3684 1.34007 1.42996 1.40563 1.27902 1.43961 1.3543 1.42401 1.42324 1.31494 1.42775 1.42342 1.38586 1.37338 1.36754 1.42232 1.43314 1.45289 1.31409 1.44338 1.36236 1.39311 1.40897 1.32791 1.33379 1.38774 1.44074 1.391 1.414 1.38243 1.38317 1.3561 1.38862 1.39583 1.41638 1.30784 1.3722 1.41806 1.29074 1.41949 1.24975 1.35311 1.32899 1.34585 1.36395 1.40309 1.35268 1.3817 1.38073 1.39853 1.33728 1.36032 1.39361 1.33507 1.26462 1.4187 1.43838 1.3816 1.46035 1.12127 1.36535 1.43717 1.39059 1.39822 1.44831 1.4463 1.16786 1.42937 1.42475 1.34792 1.38302 1.45692 1.45555 1.3946 1.45322 1.17583 1.45642 1.34691 1.27794 1.42975 1.29168 1.37893 1.41981 1.29896 1.35386 1.34065 1.42489 1.24526 1.37893 1.38856 1.43474 1.40757 1.195 1.45497 1.31895 1.11833 1.34282 1.44052 1.33724 1.36772 1.21557 1.40913 1.32988 1.37893 1.46247 1.41718 1.45004 1.42963
internal_weight=106448 10058.4 96389.8 35936.3 9044.97 60453.5 1013.4 1533.29 5651.25 7511.68 3324.29 1646.68 30285.1 11475.6 7011.38 711.562 3604.99 9738.49 18809.5 4884.7 4371.42 1653.23 53442.1 11580.8 2046.26 1661.49 10589.6 788.183 475.292 672.137 1943.51 2639.96 1737.11 1987.25 1685.25 908.434 722.174 975.248 4125.61 475.899 341.261 41861.3 17078.7 3656.08 2802.18 3807.45 8085.26 2064.14 821.729 759.093 1529.61 1200.05 13924.8 939.313 380.108 787.199 1039.41 908.404 801.464 204.937 991.229 889.069 745.162 10594.1 853.906 568.174 1175.07 1377.99 614.618 6451.21 1663.8 961.047 482.353 490.198 558.254 140.489 606.189 1677.61 509.711 851.344 2841.81 770.518 755.852 882.933 1062.79 792.857 767.328 270.356 776.812 340.23 3324.14 24782.7 1130.58 236.27 13422.6 10331.4 860.37 888.37 523.455 578.723 163.272 12305.8 5211.67 4137.87 239.003 1634.05 498.211 276.741 596.349 2429.47 243.38 292.94 968.258 429.234 500.902 4787.41 394.43 575.823 602.158 224.695 3330.63 2302.82 196.238 148.548 247.717 220.711 415.882 5084.81 249.992 1788.66 174.969 406.2 580.819 228.945 335.343 494.528 2762.05 379.625 942.597 234.218 295.724 335.007 435.511 341.643 626.494 226.465 151.038 378.32 109.703 1135.84 52.0454 227.569 253.357 227.652 316.051 190.53 133.217 95.7908 121.325 159.941 201.398 128.638 71.3796 248.134 76.2985 270.492 697.84 158.742 6782.13 471.257 93.8681 1027.82 202.499 114.576 5382.47 4240.37 100.493 504.843 766.505 101.821 108.638 9258.25 7605.65 140.11 1919.24 118.243 3222.94 91.5429 214.512 1360.22 139.98 107.355 562.099 65.3713 104.55 61.2704 376.227 173.565 93.8646 97.3151 828.148 88.64 184.989 1711.23 78.3781 456.799 113.145 344.503 86.4856 63.3548 223.616 79.1649 83.9975 51.4695 5246.64 110.477 528.426 560.803
internal_count=473704 59402 414302 158371 54238 255931 5164 8597 26372 45641 19739 9509 131999 50754 30790 3770 16436 42442 81245 21474 18857 7443 225141 49289 9936 7821 44790 4347 2413 3224 8615 11933 8312 9690 8096 4278 3299 4420 17860 2335 1940 175852 72126 15809 11981 16347 34999 9423 4827 3614 6772 5759 59771 4522 1900 3931 4540 4393 3567 990 4499 3976 3459 45304 3828 2793 5447 6027 3446 27792 7258 4564 2250 2232 2830 762 2682 10230 3054 4017 12085 3536 3350 3870 4691 3676 3570 1423 3818 1600 14293 103726 4867 1357 56317 43451 3767 3844 2601 2728 819 51674 22433 17868 1195 7207 2231 1364 2719 10320 1125 1392 4195 1907 2520 20534 1848 2510 2627 1094 14467 10048 889 684 1146 963 1795 21499 1218 7640 814 1828 2572 1101 1603 2238 11832 1712 4153 1065 1344 1567 1969 1533 2753 1110 696 1659 547 4976 270 1068 1217 1076 1467 848 626 435 552 715 960 600 320 1185 390 1185 2996 722 28443 2713 436 4419 913 512 22871 18057 558 2188 3339 481 493 38974 32065 628 8111 652 13574 433 1081 5895 697 491 2461 324 491 292 1638 901 428 439 3567 392 1003 7218 381 2636 537 1475 413 294 1191 348 404 236 21952 484 2240 2430
cat_boundaries=0 1 2 3 4 5 6 7 8 9 10 11 12 13 14 15
cat_threshold=7 8 2 2 8 2 2 512753664 8 608010240 370147328 1027604480 8683520 544 288
is_linear=0
shrinkage=1


Tree=1
num_leaves=238
num_cat=0
split_feature=1 2 2 1 1 2 2 1 2 1 2 2 1 1 1 2 2 2 2 1 1 1 1 1 1 1 1 19 1 1 1 1 1 1 1 1 1 1 1 1 1 1 1 1 1 1 1 1 1 1 1 1 1 1 1 1 1 1 1 1 1 1 1 1 1 2 1 1 2 1 1 2 1 19 1 1 2 1 1 1 1 1 1 1 2 2 1 2 2 1 14 1 1 1 1 1 1 2 1 1 2 1 2 2 1 1 1 1 1 3 19 19 1 3 1 1 1 1 1 19 1 19 1 2 1 1 3 19 3 20 1 19 19 2 3 19 19 1 1 1 1 2 3 1 19 11 1 19 1 3 1 1 1 1 1 2 3 19 20 19 4 1 1 1 1 1 1 1 4 1 1 14 4 19 1 1 1 20 13 11 3 3 1 1 1 4 3 13 19 1 1 1 15 20 1 1 1 19 2 3 20 1 1 1 13 3 4 15 19 4 20 4 13 15 13 13 1 13 4 3 1 2 19 1 1 12 1 20 2 1 1 12 13 19 13 2 4
split_gain=40421.4 8695.81 4234.96 2053.24 1468.72 1096.92 910.582 852.433 746.68 739.675 396.712 372.151 364.574 293.459 263.233 219.912 219.44 192.065 183.664 170.976 272.255 152.742 255.131 149.021 146.468 134.617 112.1 111.006 95.5863 92.79 92.3893 88.8039 86.6056 80.6825 162.652 75.9278 86.6863 289.523 167.738 73.4043 91.3546 72.1595 68.6526 65.6192 65.3446 93.0897 63.2772 90.9758 66.2357 61.9656 61.897 61.7938 185.964 87.6168 73.519 72.91 58.5965 56.3294 63.3856 55.566 46.9854 145.564 46.053 45.7017 45.3746 43.3314 39.1497 38.5559 38.0807 37.7518 37.4635 37.4263 36.3336 34.6461 34.0433 33.8639 32.6057 32.0051 30.7734 59.6468 38.3709 43.2676 63.5413 49.5806 28.064 26.4398 27.0233 25.7464 25.0981 23.8684 23.409 22.8952 80.684 26.8832 24.8867 29.3612 22.6291 21.4012 20.8831 32.6526 20.8508 20.0854 19.3137 19.2288 19.0302 64.5576 18.5749 18.4368 18.3587 18.3252 19.4211 18.1451 17.9357 17.8605 17.7178 17.3651 23.4307 39.2226 16.0382 15.8296 15.5442 14.8725 14.5589 14.1203 14.0731 13.493 13.3089 12.7689 13.9564 12.7044 12.4362 11.8021 11.7584 11.583 10.7263 10.8748 10.4081 10.1614 97.2873 14.6727 10.056 9.9519 9.14112 9.06582 9.05022 9.00292 8.56421 8.46248 8.38865 8.16514 8.14519 27.1472 17.2524 24.8815 9.51249 8.1194 8.11141 9.0031 7.86872 7.74 7.70554 7.52638 43.0517 8.49424 25.0841 7.41524 7.29916 7.07344 6.96109 6.89298 6.88213 6.73186 6.70449 6.70322 6.63946 20.687 19.5291 6.36357 5.85895 6.82374 5.41715 14.6255 5.36001 5.08513 4.81372 4.78 4.59523 4.57723 4.55147 4.83658 27.451 15.466 4.39732 4.35887 4.29531 4.18976 5.0742 4.13894 6.87839 3.99974 3.98506 3.89359 4.4401 7.50164 3.89086 3.68877 3.63962 3.4929 3.45955 3.42042 3.17663 3.1347 2.99782 7.91639 2.88742 4.7093 2.79853 2.77313 2.51554 2.45765 2.42163 2.41148 2.36131 2.34465 15.5344 2.33367 2.28175 2.14628 1.86401 1.69065 10.2287 1.68809 1.59461 1.35668 1.34473 1.27385 1.22417
threshold=0.17850000000000002 669.50000000000011 675.50000000000011 0.079500000000000015 0.23450000000000001 724.50000000000011 724.50000000000011 0.081500000000000017 646.50000000000011 0.25650000000000006 655.50000000000011 763.50000000000011 0.11950000000000001 0.16550000000000004 0.098500000000000018 640.50000000000011 644.50000000000011 764.50000000000011 699.50000000000011 0.16550000000000004 0.16950000000000004 0.18511500000000003 0.19150000000000003 0.16950000000000004 0.12250000000000001 0.16550000000000004 0.25450000000000006 23.160776709826283 0.18650000000000003 0.12450000000000001 0.16950000000000004 0.38350000000000006 0.14950000000000002 0.18511500000000003 0.19150000000000003 0.23650000000000002 0.25650000000000006 0.25850000000000006 0.24850000000000003 0.19550000000000003 0.22950000000000004 0.035500000000000011 0.18250000000000002 0.11950000000000001 0.16850000000000004 0.16750000000000004 0.11950000000000001 0.098500000000000018 0.12250000000000001 0.11550000000000002 0.18250000000000002 0.21750000000000003 0.21450000000000002 0.22950000000000004 0.23050000000000004 0.20950000000000002 0.19450000000000003 0.17250000000000001 0.17350000000000002 0.091500000000000012 0.16850000000000004 0.16750000000000004 0.18650000000000003 0.22550000000000003 0.18950000000000003 603.50000000000011 0.17150000000000001 0.18850000000000003 568.50000000000011 0.38350000000000006 0.035500000000000011 700.50000000000011 0.25850000000000006 10.717017879927086 0.12550000000000003 0.17450000000000002 652.50000000000011 0.25750000000000006 0.24850000000000003 0.22950000000000004 0.22550000000000003 0.21450000000000002 0.21750000000000003 0.21350000000000002 640.50000000000011 763.50000000000011 0.081500000000000017 599.50000000000011 758.50000000000011 0.17250000000000001 16.500000000000004 0.20250000000000004 0.20550000000000002 0.18511500000000003 0.19150000000000003 0.19550000000000003 0.12050000000000001 570.50000000000011 0.16850000000000004 0.16750000000000004 665.50000000000011 0.12050000000000001 570.50000000000011 570.50000000000011 0.039500000000000007 0.048500000000000008 0.10750000000000001 0.10250000000000001 0.091500000000000012 12085.270000000002 13.552320102902685 13.800556891069563 0.17150000000000001 27776.250000000004 0.15050000000000002 0.23050000000000004 0.24250000000000002 0.23950000000000002 0.035500000000000011 14.677590439156917 0.19050000000000003 10.9304583986862 0.17450000000000002 719.50000000000011 0.18050000000000002 0.17950000000000002 12085.270000000002 10.400898297216033 16137.690000000002 10.121051163682681 0.24550000000000002 -10.0695416013138 -21.839223290173717 641.50000000000011 15796.970000000003 7.5876199790869245 2.2248236500603302 0.21450000000000002 0.21750000000000003 0.20950000000000002 0.11550000000000002 649.50000000000011 9168.8350000000009 0.079500000000000015 8.38243815161775 0.30017345515254007 0.39350000000000007 23.930458398686202 0.19050000000000003 26002.070000000003 0.30950000000000005 0.33350000000000007 0.29150000000000004 0.27450000000000008 0.29450000000000004 685.50000000000011 26959.365000000002 17.100176174748757 11.607318724531641 -15.027073864060297 12.665000000000001 0.25650000000000006 0.24850000000000003 0.24250000000000002 0.23950000000000002 0.12050000000000001 0.27450000000000008 0.17050000000000004 10.585000000000003 0.29650000000000004 0.13550000000000004 11.500000000000002 12.875000000000002 21.800556891069565 0.16550000000000004 0.16950000000000004 0.16850000000000004 10.993791253619394 103.64783502166198 0.29456359148329531 20342.510000000006 18689.440000000006 0.46250000000000008 0.11850000000000001 0.25650000000000006 10.845000000000001 15796.970000000003 140.59849694306533 24.160776709826283 0.30050000000000004 0.33750000000000008 0.29150000000000004 0.80942810457516357 11.607318724531641 0.12150000000000001 0.25450000000000006 0.24950000000000003 1.16077670982628 691.50000000000011 9707.6250000000018 10.345623169139822 0.061500000000000006 0.039500000000000007 0.048500000000000008 172.53487111436692 20401.395 11.385000000000003 1.8330952380952383 3.50229471141563 14.065000000000003 10.854645013485698 12.825000000000001 175.68277228413442 0.80468627450980401 151.72260583014031 193.68328628696273 0.12350000000000001 77.382240947420584 13.625000000000002 27166.265000000003 0.39350000000000007 564.50000000000011 15.517296164194251 0.039500000000000007 0.048500000000000008 564.69553000000008 0.10150000000000002 10.866021779998833 804.50000000000011 0.15650000000000003 0.15350000000000003 490.90929041666669 206.59930165712976 20.516480063435669 46.522470801001838 750.50000000000011 12.905000000000003
decision_type=2 2 2 2 2 2 2 2 2 2 2 2 2 2 2 2 2 2 2 2 2 2 2 2 2 2 2 2 2 2 2 2 2 2 2 2 2 2 2 2 2 2 2 2 2 2 2 2 2 2 2 2 2 2 2 2 2 2 2 2 2 2 2 2 2 2 2 2 2 2 2 2 2 2 2 2 2 2 2 2 2 2 2 2 2 2 2 2 2 2 2 2 2 2 2 2 2 2 2 2 2 2 2 2 2 2 2 2 2 2 2 2 2 2 2 2 2 2 2 2 2 2 2 2 2 2 2 2 2 2 2 2 2 2 2 2 2 2 2 2 2 2 2 2 2 2 2 2 2 2 2 2 2 2 2 2 2 2 2 2 2 2 2 2 2 2 2 2 2 2 2 2 2 2 2 2 2 2 2 2 2 2 2 2 2 2 2 2 2 2 2 2 2 2 2 2 2 2 2 2 2 2 2 2 2 2 2 2 2 2 2 2 2 2 2 2 2 2 2 2 2 2 2 2 2 2 2 2 2 2 2 2 2 2 2 2 2
left_child=1 3 9 15 6 7 33 71 12 10 21 27 14 18 59 41 77 91 46 24 60 50 28 44 101 73 39 31 209 216 98 35 85 42 62 123 38 -38 -37 56 -41 -1 125 107 45 144 47 108 165 102 90 52 55 63 -55 -36 -24 167 -59 97 61 -21 -35 -53 67 -31 -25 -64 145 127 -17 118 -18 76 -50 89 136 -11 79 80 81 83 -83 -12 148 86 -7 113 114 -68 -2 93 235 124 207 -96 -45 149 99 206 109 205 177 160 192 -106 -104 226 -9 183 -111 171 218 -79 -34 -81 117 -117 -3 -54 -86 187 168 -6 225 197 -105 128 169 173 -118 -107 -99 -92 166 -136 211 139 -139 -94 -49 -138 -126 223 -15 193 150 -131 -30 -5 152 185 153 -74 -154 -44 157 -127 172 -157 -61 162 163 164 -29 -48 -89 -22 -114 184 -98 -46 -78 -102 229 176 -176 -16 -82 -180 181 -147 214 -75 -13 -152 -28 234 -163 191 -191 -190 222 200 -103 196 -80 198 -4 -66 -43 202 -123 -204 217 -14 -27 -95 -182 -23 233 -10 213 -52 -33 -216 -26 -129 -32 -77 -168 -51 -70 -120 -225 -8 -20 -199 -130 230 -116 -124 -206 -203 -72 -93 -19
right_child=2 5 4 8 11 32 17 13 25 16 78 69 19 23 49 70 72 236 43 20 57 22 26 66 29 30 186 161 84 65 112 182 88 34 51 36 37 -39 -40 40 -42 68 155 96 111 -47 48 140 74 221 212 53 119 54 -56 -57 -58 58 -60 103 -62 -63 64 -65 199 -67 75 -69 104 -71 121 -73 146 100 -76 219 158 87 195 115 178 82 -84 -85 120 -87 -88 134 -90 -91 133 92 137 94 95 -97 170 132 -100 -101 129 194 106 126 105 131 -108 -109 -110 110 -112 -113 122 -115 174 116 130 -119 143 -121 -122 201 231 -125 142 156 -128 204 228 147 -132 -133 -134 -135 135 -137 141 138 -140 -141 -142 -143 -144 -145 -146 180 -148 -149 -150 -151 151 -153 154 -155 -156 159 -158 -159 -160 -161 -162 188 -164 -165 -166 -167 220 -169 -170 -171 -172 -173 -174 -175 175 -177 -178 -179 179 -181 208 -183 -184 -185 -186 -187 -188 -189 189 190 -192 -193 -194 -195 -196 -197 -198 227 -200 -201 -202 210 203 -205 232 -207 -208 -209 -210 -211 -212 -213 -214 -215 215 -217 -218 -219 -220 -221 -222 -223 -224 224 -226 -227 -228 -229 -230 -231 -232 -233 -234 -235 -236 -237 -238
leaf_value=0.06730295426226364 -0.060245916834530545 0.08468924979328743 -0.0079903814806140897 -0.013602860683771275 -0.16356314887939208 0.080923137088515021 0 0.045572388961591229 0.011903684379361828 -0.22858635570062294 -0.061179436612938932 -0.00078025886398528721 -0.092141813184577245 -0.034126584574162185 -0.011510438722680767 0.077730626525485 -0.1794728001468637 0.062117012764836887 0.0600938722370939 -0.11279582081561974 -0.0039833365895286955 0.028080342734396517 -0.10934811517028133 0.060230797757074003 0.057417293056115558 -0.014570316766080959 -0.02081471943430057 -0.068035865032060383 -0.087535161718947249 -0.02637554043573169 0.051981152211649229 -0.14675353837143967 0.011457760620593199 0.041660870504750924 -0.046788705605215371 -0.082892169095583196 -0.21927694443444101 -0.08079238021748128 -0.011947620713843397 -0.09385026937455869 -0.12074001059586048 0 -0.10794287505463761 0.00055569524375479774 -0.014175995700931197 0.047630492980586442 -0.010330123693087424 0.055678142154887263 0.062902525706879958 0.012982949726648913 -0.15118598520841112 -0.023356688247357611 -0.1429061596088303 -0.12555932967691683 -0.026338794856387876 -0.0064253329939448134 -0.1833039078700904 -0.11369937092528408 -0.020217666373348434 0 -0.13663195702252312 0 0.0051765121042068075 0.017526919154265075 0 -0.0089736728787857059 0.03336685284797819 -0.054321777081126246 0.01912163571608921 -0.097063074304491778 0.036166095704051215 0.074083967318863006 -0.11884505121959342 0.042505874923929175 0.034527933220378698 0.040911888218775672 0.010977414718151033 -0.17502915191256616 0 -0.15792362321039141 0.0050583763456205381 -0.1588821379394888 -0.066851867437900406 0.036939895084907276 -0.048951487527883343 0.084414844340189296 0.073465281201307756 -0.17985502075806825 0.07497006205891045 -0.010965086680481047 -0.12962747489225082 -0.0753656820746577 0 0.047674129994531599 -0.019762863892082927 0.028489716276026675 0.055426932951026735 -0.0094252357185704554 -0.092004776790955353 0.010366513728017656 -0.033359709151352147 -0.027645233923204903 0.026542548209699274 -0.00366733625924049 0.065782969571502023 0.03335539180897814 0.0090821512943670274 0.072563019853333563 0.03561388007422453 0.014775159540499273 0.030285983498076128 -0.0023920172957140168 0.017465191878240232 -0.084259224924307333 0.068781306534040756 -0.091693718456686474 -0.15027140505949418 -0.011062910646672371 0.057255852793641288 -0.058620791016369939 0 0.042122103127101441 0 -0.068458250035994178 0.014028194385886898 -0.05406857300984852 -0.01597538928617941 0 0 0.016088237043078275 -0.075369714204645541 0.025240981041170216 0.0039915610986657676 -0.083391238992496605 -0.13552656351604433 -0.068013566421835633 0.028884911744298442 -0.092003073492747625 0.016220406101274325 0.037125618603910317 0.071982168765818352 0.015272479377026534 -0.019210841334745547 0.052562187525889252 0 0.0017169151176181269 -0.14455080614671012 0.032600974516192774 -0.050407741855648079 -0.067284586456930168 -0.0070900467746355502 -0.11240983147631149 -0.1970024638361221 -0.080477652096529448 -0.12360569866229275 -0.008780906542455039 0 0 -0.042358205026562949 -0.075210744453768352 -0.03561045619771927 -0.012543198101157348 0.022818984490595953 -0.08658506541340158 0.022913535154962323 0.011343497556083633 -0.13654396822757858 0.023213104323928639 -0.024015068657250855 0 0.044406046894743575 -0.084492264411085122 -0.0028883578603729116 0.0062745972890373937 0.040366270242051132 0.061653022181746779 -0.0087975714740777464 0.015779058745895056 -0.057709742846485397 -0.0036500945150390561 0.021353758484325188 -0.063614868593437901 -0.18634034182177311 0.028989613169905216 -0.060095601420266639 -0.066019383185051211 0.019428882434492013 0.039874258742843276 -0.055970630317579512 -0.006382039306445526 -0.077812557786516384 -0.13481873175355136 0 -0.0018109836350543142 -0.055928228663713962 0 -0.042351651394878509 -0.011652038246088394 -0.06403399998508319 0.016986906665488515 0.023950937096011926 0.047227768522572253 0.078797466802107252 0.055349736742028366 -0.012346112300548421 -0.043346015789222495 -0.060496306877540422 0 0 0 0.054094635042056728 -0.0073605625407501792 -0.17585742932777426 -0.081957619783461069 -0.055696301710167859 -0.12424348468721934 0.023600353237891458 0.032374651873432345 0.0038690464322714791 0 -0.19051534611383822 0.05278071882722811 0 0.082586733428024833 0.065482757204962092 0.037161587703453083 0.035030422903906913 0.016570087343301454 0.025741602815425289 0.070659436188540772 0.036716138896209144 0.025792497371257345 0.012768707266955118 0.035526106746088991 0.05094483102082846 -0.021764673283579464 0.026000030707219013
leaf_weight=266.18486838042736 58.489861011505127 325.58140094578266 64.466449066996574 321.04690229892731 79.494318500161171 6461.6425646394491 27.623780235648155 2266.3181997686625 92.575504824519157 49.692635357379913 1290.0657564252615 21.484014123678207 118.90541839599609 199.93950128555298 150.99646234512329 256.0471299290657 54.818441823124886 523.4892463684082 3493.6516991555691 196.19657222926617 55.329893663525581 56.7971081584692 154.92010793089867 209.21969562768936 76.789012923836708 28.773604512214661 35.703537300229073 38.149979799985886 194.66370177268982 1247.6487782597542 54.034599989652634 66.728094637393951 61.544932335615158 127.63798075914383 1218.6909226477146 490.02353718876839 85.283078268170357 1823.2225433886051 285.95410804450512 2201.4296742081642 1115.095743894577 40.746673032641411 87.084330216050148 65.293923825025558 18.749723672866821 132.962087854743 125.5332392603159 1725.2573045343161 269.44860193133354 27.768337950110435 153.49605165421963 350.74558402597904 108.90045914053917 67.617455452680588 115.60197912156582 310.20369823276997 130.00754480063915 47.66136060655117 256.14929667115211 37.082322612404823 126.58842533826828 87.953718796372414 81.66548079252243 235.01149809360504 66.408371552824974 2059.2965466678143 94.215557932853699 142.37676990032196 320.49180114269257 19.907768979668617 191.55879190564156 5580.2249381244183 337.1516904681921 705.4360599219799 2927.4927903860807 284.93329064548016 340.6210745126009 499.39348018169403 23.523358136415482 34.833505496382713 29.043299198150635 66.521918684244156 144.89762368798256 23.922923371195793 85.500202745199203 4617.8698126375675 6807.4116564393044 147.46024407446384 653.52343845367432 185.85547730326653 291.01051753759384 62.875815331935883 114.20538558065891 237.51521079242229 91.638539627194405 200.09617231786251 784.86815795302391 396.67946265637875 51.519478395581245 51.900316536426544 25.042210504412651 107.50058141350746 891.38385552167892 726.2522479891777 284.47320151329041 2402.0557294338942 589.00987274944782 1012.0069853067398 2529.0504654049873 706.25921703875065 1508.8315101414919 31.988513171672821 18.431967779994011 24.045205160975456 174.88765744864941 135.0160006582737 57.902543276548386 52.03693725168705 621.18187573552132 27.027146831154823 41.870587900280952 229.61530108749866 37.363400399684906 21.768636763095856 51.070474028587341 223.99927075207233 1653.8585384637117 31.98474657535553 32.244105190038681 696.93224057555199 39.983641430735588 2344.5041674524546 2184.9420725554228 75.308794349431992 346.33515772223473 31.000953167676926 797.13919450342655 49.629713460803032 341.35270334780216 138.85218267142773 394.89330038428307 624.50899213552475 150.79389196634293 505.68886876106262 66.389969140291214 199.12331035733223 79.318972423672676 291.43516385555267 92.386530995368958 19.200996622443199 19.708911046385765 149.89794538915157 30.852945849299431 206.47933632135391 105.6701188236475 19.619099974632263 24.655476957559586 21.252611398696899 19.45451782643795 236.46263419091702 293.77157178521156 30.700705498456955 49.789389833807945 40.921190902590752 21.16211511194706 213.68597258627415 259.18578340113163 132.94763450324535 106.35898886620998 24.592303276062012 1523.685942992568 85.994051814079285 344.59132562577724 182.45900562405586 172.36857071518898 304.20662462711334 44.549697041511536 58.714724749326706 26.627119600772858 47.042029589414597 107.86540678143501 19.154453292489052 33.619644016027451 413.34004752337933 37.274688556790352 98.707182317972183 22.693993255496025 1784.6458952724934 167.49056485295296 74.769825577735901 56.948314130306244 21.306594207882881 74.214248314499855 21.986356273293495 128.59966187179089 24.04775059223175 67.626885280013084 33.305055856704712 20.528831824660301 210.86955769360065 382.55765956640244 840.47841960191727 154.9199256747961 863.32085068523884 21.87576650083065 35.4419035166502 109.31942856311798 19.774033591151237 40.470104858279228 30.91375170648098 729.48479825258255 70.725011274218559 168.43341609835625 29.91538193821907 30.810568630695343 35.389881819486618 61.07851979136467 94.862637981772423 21.479184582829475 21.294119611382484 36.384344279766083 333.29807332158089 18.873071745038033 429.23354090750217 7054.4920156002045 49.153587892651558 73.526112228631973 24.401812642812729 32.149711012840271 368.78489345312119 152.63222204148769 81.812641307711601 30.685388028621674 320.09027071297169 834.2229799926281 19.427735850214958 32.622924983501434
leaf_count=1163 277 1418 298 1486 406 28371 128 10154 419 261 6082 100 587 944 696 1115 280 2306 15555 965 250 245 753 918 334 133 159 185 929 5775 233 336 283 564 5732 2364 452 8714 1299 10487 5398 187 430 303 89 590 587 7666 1188 124 769 1622 548 336 536 1419 666 234 1163 169 637 397 369 1046 304 9445 423 678 1454 98 860 24592 1634 3143 13176 1262 1552 2503 104 176 127 336 682 103 396 20241 30037 749 2874 858 1443 306 523 1055 429 900 3495 1835 252 232 119 500 3996 3339 1243 10773 2677 4458 11402 3209 6772 149 80 113 772 648 290 234 2767 130 186 1029 168 106 232 1072 7654 147 147 3160 188 10565 9988 361 1689 144 3582 244 1542 619 1732 2837 707 2256 307 912 393 1304 430 94 88 724 160 971 514 91 113 98 92 1142 1382 141 220 199 93 976 1267 585 489 112 6832 424 1582 833 775 1343 209 263 126 211 487 93 174 1847 179 457 96 7988 792 339 271 107 343 102 615 106 310 156 100 949 1721 3738 675 3828 103 168 521 91 186 138 3237 327 863 144 144 176 271 424 96 97 187 1460 87 1875 31212 220 331 110 142 1623 691 359 139 1437 3705 93 147
internal_value=0.0245662 0.0458397 -0.0702303 0.01639 -0.0366734 0.063885 -0.01412 0.055829 0.001811 -0.104648 -0.0925151 -0.0717814 -0.00899656 0.0455943 0.000695686 0.039052 -0.138844 0.0239234 0.0481032 -0.0247739 -0.0532445 -0.103738 -0.097992 0.0125908 -0.0179991 0.0200394 -0.104691 -0.0789546 -0.048609 -0.0131377 -0.0136998 -0.0844147 0.0773872 -0.035216 -0.0298012 -0.0811017 -0.0785541 -0.0871272 -0.0571085 -0.106305 -0.102976 0.0296722 -0.0567894 0.0573208 -0.0165351 -0.00104452 0.0419443 0.0460809 0.0337756 0.0229077 -0.134169 -0.0382801 -0.0462507 -0.0206607 -0.0644814 -0.0387819 -0.144074 -0.0162807 -0.0358028 -0.00734316 -0.096849 -0.0781421 0.00256448 -0.006477 -0.00683263 -0.0156235 0.032567 -0.0313877 0.0280265 0 0.0488681 0.0690197 -0.113496 0.0228559 0.0370068 0.0222187 0.0153145 -0.158335 -0.0655149 -0.0677587 -0.0616773 -0.0646235 -0.0971307 -0.0591805 -0.0632774 0.0790175 0.0771181 -0.155529 0.0621523 0.00295107 -0.113194 0.0106542 0.000877151 0.0188969 0.0281843 0.0123755 0.0470791 -0.000327183 -0.0476751 -0.0341838 0.0266061 -0.060174 0.0168491 -0.0148019 0.0302443 0.0315186 0.0197842 0.0625692 0.0403786 0.0296764 0.0254666 -0.0597282 0.01111 -0.171393 0.0553843 -0.0978485 -0.0895234 -0.0707561 0.0658261 -0.128203 -0.0311518 0.0475787 0.0004054 -0.145878 0 -0.0356874 -0.0123371 0.00548002 -0.00901466 0.0178132 -0.122531 0.0294062 0.00182182 -0.120885 -0.145067 -0.13072 0.0210883 0.00987104 0.00176831 0.0212863 0.0588467 0.0231016 -0.00941802 0.0650804 -0.0263938 0.0128099 -0.109705 0.0212399 -0.0765591 -0.0174534 -0.106496 -0.0896899 -0.112715 -0.104787 -0.142241 -0.0813475 -0.0457671 -0.0497809 0.00193163 -0.0712121 -0.0316891 -0.0462376 -0.0282527 -0.0564081 -0.0308776 0.00249953 -0.156654 0.0137375 -0.0156502 -0.0296797 0.048274 -0.074572 0.00359679 0.000145195 0.0573755 0.0485897 0.0289818 -0.00253816 -0.0152028 -0.0269813 0.00346682 -0.00273713 -0.138151 0.0377619 -0.0431616 -0.05857 -0.000393201 0.0431064 -0.0531245 -0.0561402 -0.0393859 -0.0663494 0.0140674 0.019875 -0.0442337 -0.0251495 -0.0322444 -0.0146652 -0.0248134 0.0120009 0.0216611 0.0514952 0.0562745 0.0591916 0.0189732 -0.0827471 -0.0529497 0.045024 0.0144787 0.0175129 0.048192 0.0018502 -0.158699 -0.141418 -0.12386 -0.0965616 0.0444618 0.0258752 0.0419948 0.0389285 -0.144134 0.0504936 0.0175761 0.065827 0.0665011 0.0269296 0.0596556 0 0.0133972 0.0635497 0.0546911 0.0195608 0 0.0442411 0.0484573 -0.0661071 0.0605006
internal_weight=104809 85601.6 19207.1 32529.5 9729.25 53072.1 5928.65 33252.7 19802.4 9477.83 7001.73 3800.59 12422.1 18736.3 7684.01 12727.1 2476.1 2110.12 17404.7 4738.09 902.827 4938.64 4161.98 1331.54 3835.26 7380.34 3659.85 3453.53 502.132 3444.81 560.994 2952.29 19819.4 3818.53 3062.76 2785.75 2684.48 1908.51 775.978 3601.45 3316.53 6522.7 755.776 6953.03 536.024 399.292 10451.7 6915.52 3536.16 2051.17 776.654 2433.8 1664.82 768.977 183.219 1528.89 284.928 492.088 303.811 5632.83 410.739 284.15 628.958 585.757 501.32 3306.95 795.518 224.042 6256.52 347.061 6204.38 14516.4 1082.61 6819.35 3196.94 586.298 2289.62 1393.5 2063.09 1947.89 1628.12 1525.41 211.42 1313.99 414.421 17886.9 13269.1 1343.81 1932.5 280.071 424.809 1554.01 726.344 827.666 549.024 291.735 2373.85 2921.87 241.513 189.993 4529.74 390.448 1690.1 2710.96 5444.61 5031.03 1480.39 4579.18 4795.37 3333.87 2215.09 136.732 319.481 523.439 1278.97 319.773 284.939 187.053 8936.18 135.928 127.371 5948.34 243.967 101.263 278.642 412.61 2380.11 327.153 147.745 1195.87 97.8862 4746.56 2581.62 366.319 820.366 377.336 1584.95 644.04 390.982 253.058 2120.15 1421.65 201.864 8610.6 266.329 811.904 1027.79 988.367 287.05 340.248 948.468 268.314 680.154 543.631 136.523 343.166 269.907 245.252 704.667 256.082 330.854 501.239 150.023 100.233 59.3121 339.219 443.03 188.278 124.791 83.351 2308.55 104.744 685.212 207.501 1217.43 521.125 216.918 209.711 102.712 73.6691 366.613 218.278 166.548 1118.78 58.7587 118.416 58.3975 2810.43 351.216 320.515 131.718 188.797 413.579 445.291 236.1 115.198 91.1502 142.702 84.9953 277.278 423.304 3137.91 1247.86 1018.24 179.409 154.347 138.093 257.289 148.336 87.7109 1890.05 163.301 351.845 183.411 132.929 66.2005 137.868 126.847 75.5138 306.227 295.57 361.066 339.365 8104.91 7483.73 76.7774 3567.18 57.7069 64.3938 696.305 327.52 119.176 52.5612 1160.57 1025.78 82.3036 556.112
internal_count=473704 382613 91091 147358 45494 235255 27385 148036 90430 45597 33463 18109 57089 83916 35163 56928 12134 9542 77855 21926 4231 23740 19883 6061 17695 33341 17559 16518 2324 15825 2563 14171 87219 17843 14233 13341 12829 9166 3663 17304 15885 29316 3610 30974 2503 1841 46881 30954 15927 9216 3857 11369 7829 3540 872 7151 1419 2232 1397 25947 1999 1362 2864 2668 2300 15220 3558 1047 28153 1591 27612 64120 5221 30778 14364 2640 10391 6913 9723 9203 7667 7203 1018 6185 1941 78649 58408 6652 8570 1281 2081 7089 3327 3762 2475 1329 10630 13403 1138 886 20387 1870 7632 12544 24465 22581 6673 20344 21556 14971 9981 662 1425 2616 5696 1536 1360 882 39528 678 582 26497 1096 512 1287 1947 10993 1493 680 5416 478 21338 11823 1804 4036 1833 7165 2928 1786 1142 9398 6419 939 38110 1251 3688 4941 4464 1359 1580 4548 1269 3279 2605 674 1663 1283 1170 3226 1233 1551 2347 697 477 278 1563 2203 835 569 391 10327 513 3134 952 5413 2327 984 959 464 337 1678 1005 830 4990 279 545 255 12553 1650 1509 610 899 1884 2010 1115 520 414 664 398 1253 1908 13944 5532 4503 813 755 654 1146 673 383 8412 746 1776 913 656 320 605 571 329 1359 1454 1584 1541 35854 33087 348 15886 266 289 3086 1463 527 242 5175 4565 399 2453
is_linear=0
shrinkage=0.0723106


Tree=2
num_leaves=162
num_cat=12
split_feature=8 1 2 1 2 2 8 1 1 8 1 2 1 2 2 1 2 2 2 8 2 1 1 1 2 1 8 1 1 2 1 1 1 1 2 2 1 1 2 1 2 1 2 19 1 1 1 8 15 2 2 2 8 1 1 2 2 1 8 2 1 1 1 1 2 1 1 1 4 2 19 1 2 1 1 3 1 19 3 19 2 1 1 3 2 15 1 13 2 4 1 1 1 1 1 10 1 1 1 1 1 15 3 1 1 2 9 1 2 19 1 1 1 19 13 4 1 13 13 1 1 2 19 2 13 19 1 2 13 19 1 1 4 15 1 2 4 2 2 2 1 13 10 1 4 19 4 2 1 1 1 13 19 1 4 1 13 2 4 10 2
split_gain=159355 14036.7 3603.92 3073.17 2925.78 2386.35 814.317 691.109 630.66 623.923 577.688 490.232 480.771 397.75 325.073 680.415 301.47 289.15 274.896 231.695 223.065 216.071 199.339 174.521 161.785 139.802 116.054 115.569 153.913 94.114 93.4962 88.3865 81.811 73.1954 72.8622 67.2048 60.092 59.9787 81.1488 56.2131 55.0479 53.9982 53.04 49.1879 48.2683 44.5115 44.3611 44.2895 40.5118 40.132 39.9977 39.7696 39.024 38.0455 38.0058 36.3914 35.5933 34.9182 42.9406 32.64 31.8749 35.0529 64.3041 27.7231 27.5548 27.0863 57.0708 31.7814 25.033 24.7977 22.8323 22.283 21.6606 20.4693 20.2803 19.3968 19.1004 18.7324 18.5109 17.789 16.8793 16.5389 16.5315 15.5939 13.753 12.8779 12.4186 12.1297 11.892 11.1186 10.6874 22.369 10.6496 25.433 9.99347 9.82316 9.53779 9.25221 9.06736 9.02063 9.00862 8.52089 8.34241 8.29081 20.3411 8.1698 7.75591 7.32811 7.20663 7.15515 7.10083 6.99388 14.5675 6.37359 6.18239 6.11461 6.6277 6.01564 6.20295 5.50512 5.36837 5.14472 5.0204 4.99859 4.8014 4.58752 4.56799 4.56568 4.07542 4.05471 3.96293 6.55939 3.8793 3.8002 3.77261 3.66333 3.63632 3.60674 3.5107 3.4103 3.35495 3.05429 2.98336 2.81278 2.75324 2.66792 2.52236 2.3685 2.36398 2.22382 1.94475 1.90419 1.87897 1.75557 1.63753 1.56221 1.05057 0.965058 0.964942 0.901639 0.863548
threshold=0 0.17850000000000002 724.50000000000011 0.14950000000000002 675.50000000000011 655.50000000000011 1 0.14950000000000002 0.22950000000000004 2 0.25650000000000006 669.50000000000011 0.11950000000000001 699.50000000000011 701.50000000000011 0.079500000000000015 754.50000000000011 639.50000000000011 718.50000000000011 3 728.50000000000011 0.079500000000000015 0.14950000000000002 0.079500000000000015 644.50000000000011 0.11850000000000001 4 0.16550000000000004 0.16950000000000004 575.50000000000011 0.079500000000000015 0.079500000000000015 0.12050000000000001 0.38350000000000006 571.50000000000011 763.50000000000011 0.10050000000000002 0.17850000000000002 772.50000000000011 0.18511500000000003 570.50000000000011 0.16850000000000004 655.50000000000011 -6.1994431089304376 0.16750000000000004 0.14950000000000002 0.18850000000000003 5 1.3414835164835168 699.50000000000011 707.50000000000011 754.50000000000011 6 0.22550000000000003 0.075500000000000012 599.50000000000011 599.50000000000011 0.080500000000000016 7 767.50000000000011 0.15050000000000002 0.16550000000000004 0.16950000000000004 0.16850000000000004 640.50000000000011 0.22950000000000004 0.24850000000000003 0.18511500000000003 13.805000000000001 672.50000000000011 23.160776709826283 0.33750000000000008 598.50000000000011 0.035500000000000011 0.11850000000000001 27166.265000000003 0.14950000000000002 3.800556891069562 27776.250000000004 -11.322409560843083 646.50000000000011 0.18511500000000003 0.25850000000000006 15796.970000000003 554.50000000000011 0.53603571428571439 0.21450000000000002 155.25996448409623 734.50000000000011 10.845000000000001 0.17250000000000001 0.17350000000000002 0.33750000000000008 0.30950000000000005 0.11950000000000001 8 0.035500000000000011 0.10250000000000001 0.15050000000000002 0.27450000000000008 0.15650000000000003 0.93535897435897442 20401.395 0.11350000000000002 0.10750000000000001 728.50000000000011 9 0.16650000000000004 741.50000000000011 6.9304583986861994 0.082500000000000018 0.18511500000000003 0.19450000000000003 -22.364021361918216 152.44653647195224 12.775 0.24250000000000002 138.41272746730678 93.751262422710127 0.36750000000000005 0.060500000000000005 638.50000000000011 -23.447679897097313 627.50000000000011 193.68328628696273 -0.19944310893043846 0.038500000000000006 762.50000000000011 222.44064592539107 18.800556891069565 0.14950000000000002 0.15650000000000003 13.125000000000002 0.63447222222222233 0.10750000000000001 663.50000000000011 11.915000000000001 672.50000000000011 711.50000000000011 745.50000000000011 0.039500000000000007 187.44577916226061 10 0.17150000000000001 13.035000000000002 7.5876199790869245 14.295000000000002 652.50000000000011 0.15350000000000003 0.14750000000000002 0.063500000000000015 170.26215403743774 -14.482703835805749 0.064500000000000016 11.245000000000003 0.097500000000000017 85.625351450984894 654.50000000000011 12.545000000000002 11 742.50000000000011
decision_type=1 2 2 2 2 2 1 2 2 1 2 2 2 2 2 2 2 2 2 1 2 2 2 2 2 2 1 2 2 2 2 2 2 2 2 2 2 2 2 2 2 2 2 2 2 2 2 1 2 2 2 2 1 2 2 2 2 2 1 2 2 2 2 2 2 2 2 2 2 2 2 2 2 2 2 2 2 2 2 2 2 2 2 2 2 2 2 2 2 2 2 2 2 2 2 9 2 2 2 2 2 2 2 2 2 2 1 2 2 2 2 2 2 2 2 2 2 2 2 2 2 2 2 2 2 2 2 2 2 2 2 2 2 2 2 2 2 2 2 2 2 2 9 2 2 2 2 2 2 2 2 2 2 2 2 2 2 2 2 9 2
left_child=1 5 6 16 9 12 7 11 18 -3 17 54 23 22 73 126 19 29 47 74 26 70 30 55 56 -17 -10 32 41 115 137 77 102 43 97 71 52 38 -5 79 130 44 65 75 72 105 -41 -6 -23 53 -33 -20 -36 81 147 84 78 127 -59 134 117 100 63 -63 76 67 -67 -19 86 146 139 106 -29 -8 110 -28 -42 89 129 -31 -54 -49 -26 114 -1 109 -44 156 98 -13 122 -92 93 -84 -50 -73 -57 113 -47 -45 148 -70 123 104 -38 -15 142 -9 -108 -30 -4 138 -113 133 -58 136 -117 118 -24 -37 -72 140 -87 -14 -89 -61 -16 150 -46 -12 149 -132 -99 -25 -60 -94 -11 -7 -51 160 -98 -43 -22 -64 -125 -85 -32 -2 -62 -34 -18 -119 -153 -79 -97 -112 -35 -56 -115 -127 -21
right_child=2 4 3 37 8 13 14 107 20 10 24 31 27 45 15 25 57 42 51 21 35 48 60 34 82 -27 33 28 85 39 69 50 40 87 36 119 103 -39 -40 46 64 141 68 99 128 88 -48 49 94 111 -52 -53 80 -55 157 96 83 58 59 125 61 62 143 -65 -66 66 -68 -69 101 -71 120 95 -74 -75 -76 -77 -78 153 -80 -81 -82 -83 92 145 -86 90 -88 124 -90 -91 91 -93 135 -95 -96 154 121 132 -100 -101 -102 -103 -104 -105 -106 -107 108 -109 -110 -111 155 112 -114 158 -116 116 -118 151 -120 -121 -122 -123 -124 144 -126 159 -128 -129 -130 -131 131 -133 -134 -135 -136 -137 -138 -139 -140 -141 -142 -143 -144 -145 -146 -147 -148 -149 -150 -151 -152 152 -154 -155 -156 -157 -158 -159 -160 -161 -162
leaf_value=0.037469357195264931 -0.16596438700809765 0.081766324058273582 0.040943539315614133 -0.21499313046286828 0.07535035628070047 0.073617383556723592 -0.1487494497667769 -0.1992190214372121 0.0740606505196372 -0.068214855668423086 -0.1207691071901071 0 -0.044172717419624613 0.081194611647969178 -0.044718952020372731 -0.19578813123370822 0.023646577017048483 -0.049242399878878108 0.053044974844009891 -0.0067424469896098464 0.009372550567999063 -0.16205703758317391 0 0.010728234386846754 -0.10573569525180855 -0.25980124597768489 -0.028401209781464456 -0.07862700129583601 0.018509254042379821 -0.048075733434315461 0.063570203871223918 -0.12720709524874815 0.0089690286152627561 -0.051572228501990988 0.081414255587889214 0.057314496893695367 0.066615822819859768 -0.25691415197883399 -0.029255483939655238 0.021274573152340791 0.037836503753741334 -0.089081607071062829 0.0048444911681413839 -0.0088590991529564865 0.038543944087187837 0.033511782892805639 -0.037382069291180577 -0.0010102163441219462 -0.06064340495014451 0.026790118929960072 -0.051197613158008672 0.076403792580919588 0.040830900993011648 0.057799697949819706 -0.21542022437518135 0.081395973486839107 -0.086329958712136112 0.041017026923418153 -0.045305232881021867 -0.031767842924014925 0.058582907589207957 0.027177672993026401 0.069549359368523703 -0.018523130950777355 0.048000654730871464 -0.072036578299698048 0.0043647511710475555 -0.012101483737556852 -0.030370383831773151 0.070027069583654261 -0.031303004708913187 -0.050185071226209597 -0.016866389665808862 -0.25912557199183506 -0.053825709404490142 0.014451284231530132 0.022416605290633284 0.02478469007425298 -0.026180498652192623 -0.088042910426050461 0.052624796534821355 0.016450267230376441 -0.050829120744816561 -0.07099136700538583 0.055404958609637095 0.0008866511422302133 -0.010213078378365935 -0.0050856929870984119 0.079527169847819837 -0.059711832773341439 -0.025644052361845741 0.032122152560783206 -0.053547019835599334 -0.0082880574196859437 -0.14506690380396392 -0.010463046666543992 0.046207763132294091 0.00079653116673156904 0.06898009789065751 0.0040994742421872708 0.066441192868198176 -0.0045593681728718916 0.0065741935633084432 0.071996087999004157 0.044376274318138231 0.084871631406117462 0.030878129775987355 -0.24531616177382515 0.012247878686669515 -0.031750323038869585 -0.0046802580385206767 0.055278134712176713 0.030724582578778442 0.039873621701679011 -0.12223716790069289 -0.073186778594904398 -0.11282796245069666 -0.020098373685728928 0.054270320594387141 0.0026753997181580397 -0.081320891305961179 0.066909098522429045 0.054883733289566417 0.0018607439144548803 -0.063352126141872162 -0.0015165640053783566 -0.11295252904340528 0.0398354508670812 0 -0.052304553787376473 -0.019578425889816578 0.016472138811963046 0.047309815843843896 -0.020793615786590194 -0.10980045868838099 -0.092011207033163872 -0.016470204230185991 0.078728729444961287 0.0012513050554609668 -0.025133792909290024 0.061384869411063456 -0.044590975464091999 -0.016593118233466549 0.05000043963774195 -0.025598234245603715 -0.023750169134076154 0.054130086705446542 -0.10955432891457646 0.043233764792112037 0.039714400690959897 0 0.022435768473106365 0 0 0.013927305207800033 0.019186353070220576 -0.12071677542159387 -0.17356653316975487 0.021612419446926115 0.0098326795043658741 0.012841434110518029
leaf_weight=377.77600686252117 102.2079401165247 206.82985171675682 59.649159371852875 101.88192835450172 87.211381316184998 3582.1877154707909 20.719408988952637 92.246848210692406 65.47192145884037 26.348516747355461 385.44185344874859 21.259314775466919 60.821722254157066 12314.170448035002 19.655334666371346 286.57209685444832 19.605109453201294 159.69850206375122 1361.1536358445883 22.321406915783882 23.999142408370972 198.20518766343594 26.569976538419724 106.90643912553787 38.888502344489098 808.31422580778599 891.7969124019146 45.599091544747353 39.69953715801239 164.66011524200439 3558.7908351570368 155.69572506844997 244.35786604881287 19.414305314421654 178.39009593427181 300.19642788171768 601.71079848706722 557.22289118170738 18.068408519029617 63.825959473848343 1568.6962597072124 63.993214160203934 814.8483605235815 624.71798585355282 68.203200086951256 70.694751337170601 1834.23638266325 339.28496739268303 51.877640709280968 120.10665535926819 66.042391404509544 657.3642006367445 4314.1806284338236 107.25180880725384 267.12647151947021 275.17885352671146 261.73576362431049 47.142722725868225 37.796793937683105 24.309862300753593 366.58687403798103 311.35878930985928 164.23959778249264 81.789808556437492 1093.9026364386082 164.55250662565231 64.518938601016998 654.77304723858833 236.74100817739964 7890.0140136480331 40.585816025733948 23.431145071983337 141.35570022463799 7196.9982523918152 19.55526340007782 49.980268388986588 728.71973221004009 19.84549218416214 19.91278575360775 164.0126037299633 993.40497812628746 1132.4739876687527 525.89983789622784 263.62699358165264 1883.6790328621864 20.922805219888687 439.72470015287399 25.969079062342644 1296.0481504648924 70.698683768510818 35.582330763339996 240.86343812942505 105.5377874225378 104.33987434208393 19.226890712976456 31.042684644460678 240.3846483528614 23.441454455256462 1591.3589010834694 477.06848040223122 778.94115725159645 132.3641213029623 33.557366371154785 458.25104483962059 519.47510255873203 14206.180058807135 273.04842092096806 674.75711387395859 300.04529832303524 23.618921056389809 33.712640017271042 226.26771910488605 564.09239007532597 61.981653183698654 89.357821881771088 427.79574003815651 56.38182045519352 21.984487727284431 26.849117755889893 21.167557805776596 68.727763697504997 2614.654380351305 155.60419994592667 27.563680350780487 29.043864727020264 27.654563754796982 229.68359065055847 120.04785397648811 27.02064548432827 19.50541415810585 61.588873520493507 41.502918183803558 140.7804890871048 20.892672181129456 23.376178711652756 61.421544194221497 37.391233682632446 6992.3547954261303 68.82463413476944 50.043992504477501 2969.8855005651712 49.945813983678818 38.179036691784859 440.97808660566807 24.337512597441673 25.324938252568245 633.52024756371975 43.010361701250076 333.11113215982914 21.013089910149574 24.952490791678429 21.652956426143646 24.650461792945862 19.16909047961235 26.619645953178406 20.182088270783424 37.422450870275497 91.801596969366074 498.76173216104507 42.746354922652245 21.226014941930771
leaf_count=1714 498 836 271 533 364 16318 99 462 262 120 1752 94 284 56584 92 1458 89 723 6070 103 105 1001 127 483 179 4126 3997 214 174 738 16048 761 1103 87 767 1333 2678 2903 85 278 6985 302 3595 2809 300 331 8103 1539 247 533 313 2961 19421 467 1335 1251 1171 212 181 116 1660 1403 737 375 4892 744 269 2859 1071 35871 186 111 631 36386 95 213 3269 89 87 761 4492 5076 2332 1171 8499 95 1936 114 5928 333 160 1052 465 453 98 138 1092 108 7211 2086 3483 591 152 2041 2344 65563 1194 3378 1327 111 159 1000 2504 276 415 1941 262 109 121 94 326 11857 679 124 132 131 1100 550 123 84 285 182 624 99 117 284 161 32076 314 235 13423 225 177 1967 115 111 2883 203 1528 90 116 101 119 89 113 90 179 451 2252 197 94
internal_value=0.0232448 0.0556129 -0.226282 -0.126981 -0.00713244 0.0684261 -0.242563 -0.188561 0.0235409 -0.0393581 -0.0428609 -0.144269 0.04773 0.0763987 -0.252257 -0.218542 -0.0443035 -0.0308461 0.0405951 -0.0757111 -0.000782855 -0.0983961 0.069666 0.0536867 -0.0773333 -0.243302 -0.0137984 0.0275466 0.004025 -0.0472299 0.0718708 -0.0775327 0.0329695 -0.0168622 0.0458504 0.0268031 0.0483047 -0.245358 -0.189344 -0.0403485 0.0350602 -0.0295259 -0.0136977 -0.0136552 -0.0113731 0.0821575 -0.0352625 0.0250804 -0.143384 0.0228736 -0.105829 0.0607906 0.0445365 0.0155072 -0.190404 0.0610739 -0.096349 0.00665026 -0.0124394 -0.0310378 0.0503352 0.0521467 0.0407649 0.0169598 0.0379664 -0.026486 -0.0492988 -0.0197269 -0.00530658 0.0673379 -0.0421572 0.0139503 -0.0334245 -0.258847 0.00936284 -0.0258305 0.033067 -0.0274945 -0.114508 -0.06887 0.0430099 0.0122353 -0.0527791 -0.0838588 0.0525323 0.0303075 -0.000210547 -0.0744656 0.0729424 -0.0459241 0.0345773 0.0236765 -0.0498453 -0.0442294 -0.0874025 -0.0201231 0.0641947 0.025189 0.0676395 -0.00299462 0.0596426 -0.021871 -0.018858 0.061216 0.0565608 0.0831748 0.0187395 -0.240137 0.0212409 0 0.0235305 0.0346995 0.0381073 0.0206853 -0.0962648 -0.0746861 -0.0783801 0.0111732 0.0295505 0.0545846 -0.0653059 0.0633341 0.0500659 -0.0289066 -0.0409247 -0.0032813 -0.108694 0.0318922 0.0289879 -0.118161 0.00755395 -0.00235608 0.0423711 0.00338953 -0.0745187 -0.0693709 -0.042243 0.0770237 0.018965 -0.012135 0.0603354 -0.072031 -0.00279184 0.0557671 -0.00563494 -0.0678176 0.0622103 -0.151182 0.0516748 0.0124562 0.00422296 0 0.00481919 0.00878661 0 0 -0.102014 -0.205494 0.0241291 0.00258892 0
internal_weight=103141 91304.6 11835.9 1650.12 15472.3 75832.2 10185.8 1623.86 7922.65 7549.7 7342.87 856.857 21098.2 54734 8561.94 1344.23 972.946 5441.87 4664.03 605.314 3258.61 472.215 25255.6 16279.7 1900.99 1094.89 2220.89 4818.47 912.409 2774.65 22656.9 352.711 3906.06 2155.41 7918.18 1037.73 7065.41 677.173 119.95 2226.74 3759.78 396.118 2667.22 2043.56 282.179 29478.5 1898.06 2645.51 269.31 2558.3 221.738 2018.52 5485.98 1579.01 504.146 8361.56 1064.91 367.632 203.026 155.884 2598.71 2477.01 998.366 393.149 3391.32 1043.54 229.071 814.472 1623.68 12082.3 202.905 716.365 186.955 7217.72 133.099 941.777 2297.42 130.973 424.86 328.673 5307.59 1471.76 836.088 640.046 2261.46 516.291 1254.57 111.85 2958.1 91.958 452.973 276.446 797.199 630.24 71.1045 81.0935 6100.1 852.764 1662.05 1101.79 1478.64 369.105 146.28 1579.44 1121.19 26520.4 635.272 767.004 573.094 63.3185 113.544 979.291 790.36 688.542 351.094 547.917 484.178 121.707 53.4191 321.364 109.314 5824.92 176.527 112.723 55.0129 94.7108 249.339 164.605 95.2238 404.947 368.463 103.092 164.222 127.799 61.173 166.959 63.7398 10574.5 188.931 93.5914 3210.27 113.939 62.1782 605.218 51.9012 288.952 4192.31 145.218 699.698 265.371 44.5576 68.2879 46.3034 39.0146 57.6623 53.8947 56.8368 358.928 560.743 70.4009 43.5474
internal_count=473704 414302 59402 8135 68791 345511 51267 8006 35299 33492 32656 4166 94968 250543 43261 6776 4614 24152 20828 2905 14471 2290 114926 73421 8504 5584 9879 21547 4066 12364 103196 1679 17481 9617 35585 4592 31743 3521 618 9880 16806 1795 11788 9105 1268 135617 8381 11797 1346 11433 1074 9031 24680 7082 2487 37836 4791 1709 954 742 11730 11153 4482 1778 15146 4595 1013 3582 7193 54802 944 3165 845 36485 615 4210 10254 605 1923 1499 23913 6615 3713 2868 10213 2271 5531 512 13470 427 1986 1212 3534 2785 345 362 27623 3842 7542 4895 6671 1662 675 7063 5022 122147 2803 3840 2521 285 520 4351 3504 3110 1586 2484 2203 577 248 1427 512 26372 774 523 246 444 1192 755 423 1836 1660 467 732 582 298 749 281 48394 847 432 14515 527 282 2704 239 1282 18931 701 3188 1193 205 329 220 178 251 249 266 1786 2528 328 197
cat_boundaries=0 1 2 3 4 5 6 7 8 9 10 11 12
cat_threshold=7 8 2 8 2 2 2 8 8736 168 2496 290
is_linear=0
shrinkage=0.0723106


Tree=3
num_leaves=227
num_cat=4
split_feature=1 2 2 1 2 1 1 2 2 1 2 1 1 2 2 2 2 2 1 1 1 1 1 1 1 1 1 1 1 1 1 1 1 1 1 1 1 1 1 1 1 1 1 1 2 1 1 1 1 1 1 1 1 1 1 2 1 1 1 1 1 1 1 1 1 19 1 2 1 1 1 1 1 1 1 1 1 2 1 1 1 1 1 1 1 2 1 1 1 1 1 1 1 3 1 1 1 1 1 1 1 1 1 1 1 1 10 1 1 14 19 1 1 1 1 1 19 20 1 1 1 1 19 20 19 1 18 19 3 19 19 1 1 19 1 1 3 1 2 15 2 2 1 1 19 19 3 1 1 1 20 3 1 1 1 3 1 1 1 1 1 1 19 2 3 1 20 1 2 20 10 20 14 1 20 18 10 1 1 3 15 1 1 1 15 3 3 19 1 20 1 3 15 1 1 1 20 15 3 1 20 19 20 15 3 3 1 1 1 1 19 2 19 1 15 19 3 19 1 20 20 3 14 20 10 15
split_gain=30280.5 7562.69 2579.18 1641.56 1038.57 909.666 787.099 565.213 564.492 479.02 333.587 263.097 247.627 218.164 189.598 141.696 123.333 121.909 120.295 116.994 118.533 104.083 98.9998 170.474 84.6561 84.052 80.9388 169.669 78.7533 99.9614 202.794 107.511 73.5701 71.8535 69.082 66.5047 102.824 65.8005 62.9358 59.3399 196.402 141.573 61.1788 53.9684 53.4133 52.4719 51.9465 48.7962 75.269 45.9913 42.8873 41.6542 40.9239 39.8755 46.6692 35.6109 35.2267 35.0274 34.4177 34.3708 102.64 37.9626 83.2675 41.156 34.3576 34.219 33.2478 31.8743 31.5739 28.1601 27.9639 34.1117 45.1786 112.102 83.4361 40.119 33.8487 27.7373 27.8806 27.6087 113.586 58.7331 28.0988 25.2614 24.7491 23.9884 22.6489 22.2674 32.5857 21.8572 19.8026 18.7438 18.2682 18.1081 17.6793 60.0803 16.7414 59.7451 16.3334 15.4357 14.3036 14.2604 47.6228 15.0637 15.7999 23.6038 15.1419 13.7639 23.2589 13.533 13.0639 13.025 12.943 31.9091 12.7644 13.7376 11.5698 11.489 11.2359 11.2075 11.1302 24.4321 11.0641 10.6039 10.5385 10.5295 10.3605 9.98232 11.1202 9.78555 9.77155 9.7323 9.73165 9.61989 9.36073 9.25247 9.11125 8.77124 8.56342 10.2938 8.78929 13.304 8.47187 8.29856 8.20579 7.27899 6.69056 6.61437 19.3573 16.7014 6.55219 6.38648 5.77605 8.75736 5.63158 5.50631 5.38507 5.31974 35.8056 42.6379 23.124 5.31973 5.3161 5.31154 5.27917 5.21821 5.10259 5.06166 4.98154 4.70431 4.63863 4.6121 4.5778 4.53905 6.2881 4.48101 4.29496 3.936 3.78793 3.70079 3.67318 3.61213 4.40358 7.50473 3.52451 3.43661 3.32475 3.1835 3.1229 2.83124 2.76996 2.66655 2.58725 2.58028 15.961 2.57479 2.2295 2.1697 2.13571 2.05524 2.01156 1.96981 1.95408 2.51451 1.94009 1.89653 1.8367 5.18259 1.79367 9.94482 1.76895 1.55193 1.5502 1.45091 1.42889 1.31869 1.2211 1.20524 1.16492 1.16247 1.13397 1.0942 0.976981 0.94331 0.885316 0.847936
threshold=0.17850000000000002 669.50000000000011 682.50000000000011 0.079500000000000015 724.50000000000011 0.23450000000000001 0.081500000000000017 646.50000000000011 728.50000000000011 0.25650000000000006 655.50000000000011 0.14950000000000002 0.11950000000000001 763.50000000000011 640.50000000000011 764.50000000000011 699.50000000000011 644.50000000000011 0.15050000000000002 0.16550000000000004 0.16950000000000004 0.16550000000000004 0.16550000000000004 0.16950000000000004 0.14950000000000002 0.10050000000000002 0.18511500000000003 0.18850000000000003 0.14850000000000002 0.11950000000000001 0.098500000000000018 0.12250000000000001 0.12450000000000001 0.25450000000000006 0.12050000000000001 0.33750000000000008 0.30050000000000004 0.16950000000000004 0.035500000000000011 0.25650000000000006 0.24850000000000003 0.25850000000000006 0.24250000000000002 0.19150000000000003 718.50000000000011 0.29150000000000004 0.11550000000000002 0.16850000000000004 0.16750000000000004 0.19550000000000003 0.091500000000000012 0.30450000000000005 0.17250000000000001 0.15650000000000003 0.15350000000000003 700.50000000000011 0.18250000000000002 0.035500000000000011 0.25850000000000006 0.18511500000000003 0.19150000000000003 0.21750000000000003 0.21450000000000002 0.22950000000000004 0.30950000000000005 -1.8660699874692452 0.17150000000000001 566.50000000000011 0.17350000000000002 0.15850000000000003 0.25450000000000006 0.22950000000000004 0.18511500000000003 0.18650000000000003 0.18250000000000002 0.22550000000000003 0.24850000000000003 763.50000000000011 0.079500000000000015 0.11950000000000001 0.10250000000000001 0.12250000000000001 0.12450000000000001 0.19050000000000003 0.38350000000000006 758.50000000000011 0.16850000000000004 0.18850000000000003 0.18950000000000003 0.16050000000000003 0.18250000000000002 0.12250000000000001 0.10250000000000001 12740.565000000001 0.27450000000000008 0.27850000000000008 0.039500000000000007 0.048500000000000008 0.035500000000000011 0.15050000000000002 0.17150000000000001 0.20250000000000004 0.20550000000000002 0.18511500000000003 0.19150000000000003 0.19550000000000003 0 0.23050000000000004 0.23450000000000001 16.500000000000004 10.9304583986862 0.18650000000000003 0.11550000000000002 0.11250000000000002 0.46250000000000008 0.34050000000000008 22.133930012530758 10.850000652850611 0.30750000000000005 0.17450000000000002 0.16850000000000004 0.16750000000000004 11.587619979086925 10.457047171661463 -10.0695416013138 0.27950000000000008 644.86606998746936 10.400898297216033 16137.690000000002 -4.4977052885843696 2.2248236500603302 0.091500000000000012 0.12050000000000001 29.248048753467064 0.17950000000000002 0.12050000000000001 12085.270000000002 0.39350000000000007 721.50000000000011 1.0173030303030306 724.50000000000011 725.50000000000011 0.095500000000000015 0.079500000000000015 30.930458398686202 22.516480063435669 27316.975000000002 0.16550000000000004 0.16950000000000004 0.16850000000000004 10.894741497883686 7483.7600000000011 0.11550000000000002 0.10750000000000001 0.13550000000000004 27776.250000000004 0.29650000000000004 0.26450000000000007 0.27250000000000008 0.27850000000000008 0.27150000000000007 0.23050000000000004 -14.751951246532938 552.50000000000011 16282.180000000002 0.17250000000000001 11.607318724531641 0.21450000000000002 641.50000000000011 10.853292844547727 1 10.499420804755752 14.500000000000002 0.21750000000000003 10.885481564451341 701.54956271229219 2 0.37650000000000006 0.18050000000000002 12781.620000000003 0.86605555555555569 0.061500000000000006 0.039500000000000007 0.048500000000000008 1.8330952380952383 24571.880000000001 15796.970000000003 13.552320102902685 0.24950000000000003 10.854645013485698 0.18511500000000003 20552.070000000003 0.63447222222222233 0.039500000000000007 0.048500000000000008 0.25450000000000006 10.87603942340604 0.86360389610389621 16497.730000000007 0.10150000000000002 10.217488292882265 3.50229471141563 10.945332556620945 0.63121323529411777 15890.290000000003 12938.755000000003 0.11950000000000001 0.12050000000000001 0.15650000000000003 0.15350000000000003 -21.138588068881969 804.50000000000011 21.450437287707874 0.15050000000000002 1.0909545454545457 20.516480063435669 28373.325000000001 -5.4476798970973155 0.10050000000000002 10.998438479729201 10.394269894926868 7367.6250000000009 17.500000000000004 9.7568329980520438 3 0.65651086956521754
decision_type=2 2 2 2 2 2 2 2 2 2 2 2 2 2 2 2 2 2 2 2 2 2 2 2 2 2 2 2 2 2 2 2 2 2 2 2 2 2 2 2 2 2 2 2 2 2 2 2 2 2 2 2 2 2 2 2 2 2 2 2 2 2 2 2 2 2 2 2 2 2 2 2 2 2 2 2 2 2 2 2 2 2 2 2 2 2 2 2 2 2 2 2 2 2 2 2 2 2 2 2 2 2 2 2 2 2 9 2 2 2 2 2 2 2 2 2 2 2 2 2 2 2 2 2 2 2 2 2 2 2 2 2 2 2 2 2 2 2 2 2 2 2 2 2 2 2 2 2 2 2 2 2 2 2 2 2 2 2 2 2 2 2 2 2 2 2 2 2 2 2 9 2 2 2 2 2 9 2 2 2 2 2 2 2 2 2 2 2 2 2 2 2 2 2 2 2 2 2 2 2 2 2 2 2 2 2 2 2 2 2 2 2 2 2 2 2 2 2 2 2 2 2 2 2 9 2
left_child=1 3 9 14 6 8 55 11 44 10 26 28 16 35 38 101 25 94 222 34 47 79 53 86 77 131 56 111 29 30 50 135 -33 43 171 36 39 120 -1 40 42 -41 -7 83 59 -43 -32 48 -21 -45 -5 197 -25 54 -20 98 109 -16 -19 90 87 62 -62 -63 118 91 -22 150 -68 -55 71 72 74 -74 134 -75 107 78 -6 80 93 132 192 -29 127 99 -24 172 -89 -84 123 -36 199 151 155 -96 170 -98 -3 -26 -39 103 -103 106 184 -106 136 -73 -109 -2 179 202 113 -82 115 -37 130 -95 -53 165 121 126 -49 164 -99 -97 -23 128 156 161 -117 219 -81 -118 -12 -31 -10 177 139 190 173 224 -133 193 -66 -42 157 208 149 -149 163 -9 153 -27 -67 -11 195 -60 160 -160 -159 -104 -125 191 -4 -102 201 -131 223 -170 225 210 -61 174 -140 -143 196 -127 -108 221 -172 182 -112 -184 -105 -165 -35 -134 -78 215 -46 -40 -83 -100 -195 -15 198 -38 -129 218 -178 -152 203 -28 -123 -181 -80 -208 209 -101 -14 -130 -175 -87 -141 -183 -148 -113 -18 -8 -121 -59 -13 -111 -142 -69
right_child=2 4 5 7 24 13 12 21 15 17 70 18 19 84 57 -17 92 58 22 20 66 37 23 52 85 152 27 33 -30 31 46 32 -34 186 65 114 51 100 67 41 145 45 -44 49 138 -47 -48 122 -50 -51 -52 64 -54 69 -56 -57 -58 110 146 60 61 63 -64 -65 144 154 68 96 -70 -71 -72 76 73 75 -76 -77 188 -79 206 81 112 82 89 -85 -86 213 -88 88 -90 -91 -92 -93 -94 117 95 125 97 124 143 147 119 102 129 104 105 -107 178 108 -110 168 181 217 -114 -115 -116 116 133 -119 -120 220 -122 204 -124 162 -126 137 -128 176 211 167 -132 142 187 -135 -136 -137 -138 -139 140 214 141 175 -144 -145 -146 -147 216 148 -150 -151 166 -153 -154 -155 -156 -157 -158 158 159 -161 -162 -163 -164 185 -166 -167 -168 -169 169 -171 180 -173 -174 212 -176 -177 200 -179 -180 205 -182 189 183 -185 -186 -187 -188 -189 -190 -191 -192 -193 -194 194 -196 -197 -198 -199 -200 -201 -202 -203 -204 -205 -206 -207 207 -209 -210 -211 -212 -213 -214 -215 -216 -217 -218 -219 -220 -221 -222 -223 -224 -225 -226 -227
leaf_value=0.063420650893248609 -0.045261955969065709 0.081806644993450639 -0.069608584074146565 -2.1539720515319688e-05 0.077855471138723292 -0.050385826540815151 0.039512977954278355 0.017499662154871139 0.0057092956720277092 -0.13260176127622036 -0.017447559969672642 -0.056399750551245464 -0.04690596869697751 -0.00054325503324711164 0.074303616172654519 0.056877851093637528 0.055368716033514509 -0.14033513363646333 -0.0030120034980159697 -0.022798177368331923 0.0563616259540628 -0.022780163668181305 -0.062348749698647822 0.012269712772143247 0.0096280383607319844 0.061767838176929678 0 -0.067097786834693737 0.064516783661905899 -0.065493547661902088 0.01506761940492113 0.042483940636217361 -0.012586180950961876 -0.013951642821485439 0.0092380187191135298 -0.13742136016623857 0 0.038301360555323932 -0.0070406505516150755 -0.15799696349116665 -0.0048757159365200933 -0.059220483185367344 -0.098101156965821307 -0.11146294129939609 0 -0.10206888313990979 0.046777505373511129 -0.063222364523095542 0.044672279663824067 -0.080233907371087848 -0.012737320388352949 -0.029734279419579339 -0.029863741623573768 0.031852263987399133 -0.046136683782839569 0.070421347325064151 -0.11950019376624053 0.037093502256298851 -0.069136587621093037 0.033902569549555388 -0.03388367468113454 -0.0039754145910913894 -0.10390170194203588 -0.051413553765898241 -0.02732232822599789 0.05141333027837184 -0.0054858540563786917 -0.0091788317455145062 0.030960450803848336 -0.0063843566284440502 0.0093100261310486432 -0.11896218877249036 0.042390551201855427 -0.04829605366204779 -0.10095751100577269 -0.0069942530335308489 -2.4460577626793601e-05 0.081333177653997848 0.071418360916000664 -0.04358050036940541 0.05010330969841801 0.0118143947565912 0.012764720336648192 -0.024679327783740615 -0.074671688162075672 0.035932297075750005 -0.10290782540450213 -0.039053657763304002 0.010658556960597382 0.039071015309246317 -0.060603734452905102 0.033612454041721182 0.068928029636679919 0.0091034192346903381 -0.024743020000880793 -0.18318894190795793 0.06231419275323713 0.03020600926291362 0.053167788548185782 0.065137783768733748 0.004908002371033204 -0.051384150241948937 -0.0047768780932065562 0.045363314767709391 -0.017939683671308396 0.028940480692158044 0.040600077943316749 -0.030370364874056588 -0.079525578797167429 -0.06042498691656159 0.038111113677214918 -0.041845312532915034 0.064992011778868791 0.0069816792895389859 -0.14059527356922588 -0.069272163506726561 -0.0016834915937469989 0.02043372977570259 -0.11551344904505154 0 -0.071331759366514119 0.024181544321748263 -0.0074846513188146953 0 0.022444862597514898 -0.10928319118554836 -0.070128832364395446 0.025264652150029255 0 0.031472220842681455 -0.10829028585011191 0.029111613344925964 -0.018505859254494869 -0.069582566118702033 -0.050196179663923944 -0.037798658799233498 -0.03611041207040331 -0.13831076600088435 -0.03967251844383396 0 0 -0.0002275300507560943 0.038639251398379787 0.048785741928422902 0.0083526580122610678 0.024996863171262474 -0.018580763519745604 0.036286407323692975 0.057672607207933241 -0.009601034134077974 0.027818697184935407 0.029891489660417363 0.068529310386495901 0.04599873271241374 0.040826345680892585 -0.06078133450731045 0 -0.10693619655365676 -0.033521725373785123 -0.088363192906603577 -0.19602840147900813 0.031742598881308835 -0.024647286886119557 0.01601019164591885 -0.02266023089874494 -0.023085994097660767 -0.0042953772047283172 0.0095672653043466158 -0.082224832898676936 -0.027414335896968667 0.019644941845667337 0 0 0.0052495916071885309 -0.0031280622916241879 -0.028061269627891943 0 -0.062530643882311318 0.0081285734034986703 0 0 0.043402456291517899 0.075592287650329562 0.051433569836999038 0 -0.0056525920284435293 0.021018912472806687 0.00029593748731360567 -0.037385917843319724 0.05014882060813481 0.021667389114074898 0.010675470857432741 0.066300975986148508 0.079603875033602098 0.061627303749728773 -0.050027389549375252 -0.021406922009936109 0.030844284034436419 0 0.031310731494797114 0.032664929243041638 0.0019081034865292394 0 0.036458393556796115 0 0.036696620783541974 0.036548792836521536 0.066290594026388941 0.067006655316956223 0.032705503346356871 -0.0064420695832953304 0.02375641337288106 -0.018001795042599147 0.073168797380973732 -0.03380668393757192 0.031822133702603485 -0.06401404706543197 -0.0043311192462289622 0.075763897488548212 0.047910336481086946 0.022842970280753508 0.048837542838710092 -0.11182799747035964 -0.1020990904012232 0.028624627388524317 0.0034261404271100355
leaf_weight=245.15488818287849 63.170202031731606 294.084368750453 57.33488292992115 2907.9853834062815 5438.2215512245893 389.77670702338219 1568.4951006472111 513.25216369330883 30.660954475402832 573.00334675610065 102.2932026386261 25.529635310173035 17.651859790086746 20.640899881720543 232.84458468854427 517.93379117548466 3137.9455377459526 78.234060615301132 287.21682326495647 270.7604858726263 194.41481809318066 84.476744443178177 305.12724108994007 184.68232478201389 60.136331543326378 573.72016130387783 21.426931858062744 245.63186439871788 89.668940350413322 167.0268212556839 1649.128670334816 133.18363118171692 2074.4171505272388 37.212436199188232 208.49740049242973 35.049166217446327 24.822203353047371 71.648436576128006 188.68084581196308 98.48133085668087 253.75021652877331 1145.4590219855309 264.73379720747471 319.812624335289 23.35297304391861 198.82352052628994 339.50555472075939 105.46306753158569 126.76178660988808 3644.0004327297211 2730.918940231204 23.729469954967499 312.9972431063652 136.04608377814293 267.25212946534157 5082.1821967214346 402.24818807840347 357.86778043210506 220.51204739511013 125.45122908055782 1152.0916701257229 413.93400871753693 101.55460540950298 130.99817201495171 298.21515803039074 730.80130678415298 161.62159864604473 43.065951958298683 407.48975405097008 367.78922937810421 32.655471965670586 55.412364095449448 76.876581072807312 1648.1317921280861 222.37942142784595 150.23575142025948 31.076705768704414 4148.2464574128389 5003.3901664912701 76.605893954634666 470.16264641284943 19.2040024548769 1790.1078674644232 140.93172872066498 21.885583490133286 36.350243285298347 143.67389811575413 102.74827572703362 197.7555678486824 197.17964942753315 277.56173455715179 3045.878870472312 924.10455901920795 1307.7454796135426 49.429718047380447 24.065116718411446 268.51681827008724 2298.6657726764679 575.84868048131466 160.94902193546295 33.139016568660736 72.102783337235451 195.31989473104477 187.47727265954018 78.195538237690926 162.72553692758083 40.091499194502831 82.737973511219025 340.82125709950924 38.828680321574211 216.27322521805763 25.820082724094391 231.45466160774231 130.3203349262476 38.43355256319046 185.1191358268261 32.136126220226288 884.7793487906456 36.3631382137537 36.458782568573952 56.442988947033882 25.955146595835686 37.286791905760765 36.243309065699577 2337.3448174893856 762.55716650187969 59.654903993010521 22.321616634726524 32.014710620045662 125.4996922314167 98.105630069971085 1339.2683383524418 71.598704278469086 29.235324531793594 185.86605931818485 243.44485549628735 62.574476942420006 131.89168249070644 100.24368715286255 20.39315739274025 23.387183368206024 99.554609566926956 1457.765744894743 473.59919092059135 25.068709775805473 51.256186097860336 25.811286553740501 162.60567298531532 281.50755314528942 43.981138527393341 174.23012955486774 774.11484436690807 362.95684014260769 648.33752012252808 1435.9519784748554 20.404514938592911 24.458454757928848 151.63230727612972 100.05191966891289 848.03187356889248 28.229550316929817 23.181132301688194 167.8436983525753 207.55051927268505 45.174529269337654 92.661157131195068 20.599426761269569 197.33257679641247 49.532207980751991 32.799240693449974 269.27255496382713 126.20780165493488 28.233512952923775 34.033389434218407 56.376551568508148 63.730529278516769 30.368137151002884 38.684976547956467 99.36525671184063 18.334181055426598 27.817036554217339 789.87260520458221 141.11746421456337 804.45534718036652 19.185097903013229 25.585123926401138 22.951997563242912 62.322100296616554 94.985550433397293 680.40346992015839 120.20496167242527 50.025004804134369 72.033472195267677 388.52469711005688 6491.7824552506208 39.636302724480629 18.712195575237274 51.916932299733162 19.256227150559425 69.806628823280334 84.281830832362175 43.36726239323616 27.185669496655464 39.107401266694069 25.449407637119293 1697.8401488512754 75.249180689454079 1502.7192666381598 338.33784405887127 144.44780978560448 43.833541244268417 31.273520901799202 22.116489544510841 558.77039748430252 24.004917323589325 303.68638752400875 45.863658785820007 30.569725275039673 92.495398968458176 568.84169179201126 79.81360749900341 583.40567654371262 93.37741357088089 289.4975565969944 47.909945249557495 68.594058156013489
leaf_count=1163 277 1418 267 13403 26472 1725 7465 2413 143 2498 455 120 85 97 1115 2453 15114 345 1297 1251 918 378 1362 835 283 2711 94 1081 390 755 7632 605 9466 159 978 165 105 329 876 449 1119 5095 1210 1419 106 907 1584 487 590 15885 12544 104 1397 599 1236 24592 1776 1691 950 570 5213 1878 458 585 1296 3499 761 202 1879 1661 139 248 327 7355 1021 666 136 20241 24279 366 2168 89 8332 616 98 179 637 468 906 900 1252 14369 4458 6135 198 112 1259 10773 2767 772 148 334 913 878 363 757 186 358 1516 167 1029 114 1064 611 172 816 136 4132 169 166 252 116 175 160 10919 3277 276 103 147 577 444 6345 339 131 836 1115 296 580 467 92 110 462 6916 2256 111 228 109 775 1343 209 803 3610 1732 3096 6821 87 112 673 420 3722 135 103 765 961 206 421 97 904 221 140 1253 597 131 152 254 299 143 161 457 88 130 3738 675 3828 90 122 96 294 417 3237 539 233 325 1875 31212 182 90 216 91 331 386 205 121 168 116 8014 373 7284 1623 691 208 142 101 2695 112 1437 197 130 441 2689 361 2760 451 1276 217 320
internal_value=0.0222033 0.0421401 -0.0563516 0.0146283 0.0599742 -0.0270696 0.0519203 0.00169972 -0.00786887 -0.0789092 -0.069893 -0.00759158 0.0418675 -0.0549775 0.035584 0.0247745 0.0487824 -0.10342 -0.0307859 0.0310798 0.011253 0.0178915 -0.0264062 -0.0434983 0.0738473 0.0423896 -0.0806967 -0.0765727 -0.00279859 -0.003415 0.000734607 -0.0156112 -0.00913728 -0.0790955 0.0356388 -0.0607289 -0.0565216 -0.0115622 0.0267455 -0.0625954 -0.0477796 -0.0722551 -0.0701124 -0.0801809 -0.024981 -0.0657658 0.0206217 -0.014319 -0.000580567 -0.0828241 -0.00622932 -0.0242027 -0.0136674 -0.0108563 -0.0243017 0.0652389 -0.101818 0.0450456 -0.0878513 -0.0292493 -0.0249179 -0.0326967 -0.0397786 -0.0158919 -0.0342328 0.0371401 0.0297135 0.0252064 0.0201194 0.0033861 -0.050395 -0.0511403 -0.0468583 -0.0412694 -0.0668395 -0.045001 -0.0675634 0.0755577 0.0735412 0.020458 0.0239552 0.0137483 0.01751 -0.0523557 0 0.0582167 -0.0759555 0.00527114 -0.00540981 0.0155154 -0.045475 0.0321367 0.0585823 0.0180878 -0.117826 -0.110016 0.0271625 0.0283791 0.0620022 0.0514183 0.00983334 0.011706 0.00315531 0.0190061 0.026855 0.0125654 0.00270824 -0.0767636 -0.0705831 -0.0862177 0.0437777 0 0.0481622 0.0412099 -0.0888663 -0.0828932 -0.076536 0.0138031 -0.08629 0.000253485 -0.0393084 -0.0286358 -0.0506201 -0.0308677 0.0263533 -0.114127 -0.0443157 0.0047763 -0.00778858 0.0109357 -0.0837742 0.0375697 -0.0220644 -0.0385799 -0.0395402 -0.0497487 -0.017487 -0.112047 -0.00548173 0.00656133 -0.011166 -0.000271685 0.0341771 0.0612325 -0.023692 0 -0.0847632 0.0533919 0.0444862 0.0251654 0.0101756 0.025168 0.0572185 0.0536305 0.044526 -0.130603 -0.0260695 -0.0863214 -0.0894333 -0.0828704 -0.122474 0 -0.0190632 0.00446049 -0.0516442 -0.0134917 0.0203241 0.0189479 -0.0918375 -0.0637825 0.0118811 -0.00623418 0.0279729 -0.0218644 -0.0283014 -0.0128016 0.0170043 -0.107375 0.0181641 0.0394476 0.0163363 0.047602 0.0523689 0.0553345 0.0421619 0.0124349 0 -0.00767088 -0.0303911 0.0443225 0.0170943 -0.00215791 0.0578939 0.0619856 0.062683 -0.037716 0 0.0222668 0.00860925 0.0556008 0.0242067 0.0239382 0.0180623 0.0253287 0.00989561 0.0364208 0.0699337 0.0650493 0.0597105 0.0507126 -0.022602 0.0122748 0 0.0713638 -0.0212056 0.040442 -0.05155 -0.0264616 0.0560392 0.0418786 0.0175269 0.0446693 -0.102277 -0.0980216 0.0245071 0
internal_weight=101099 80637.4 20461.8 31720.1 48917.3 8909.2 30962.4 19625.6 5283.88 11552.6 8454.2 12459 17656.4 3625.32 12094.6 1811.65 10743.7 3098.4 2123.69 6912.62 1303.8 7166.58 2004.78 946.481 17954.9 6519.39 5430.73 4554.65 10335.3 10245.6 7627.54 2618.07 2207.6 4410.54 5608.82 3280.48 2862.4 565.7 6268.47 2402.28 959.517 1442.76 654.511 4350.38 3472.23 1344.28 1988.63 540.272 397.522 3963.81 5638.9 460.116 497.68 1058.3 554.469 13306 876.076 5826.1 1498.37 2836.93 2252.77 1798.58 1253.65 544.932 383.376 5421.13 763.526 6023.32 569.111 503.835 3023.47 2990.82 2385.78 1875.24 510.539 1798.37 605.034 16167.8 12019.6 6600.88 4311.83 2289.05 2078.52 386.564 344.849 1787.09 448.801 454.189 300.504 1987.29 584.158 3254.38 4224.35 3479.89 1600.04 1006.63 5313.28 4904.53 8223.84 1191.97 313.721 1293.71 613.436 680.276 447.583 240.921 232.692 478.972 423.559 473.828 5593.26 144.11 831.938 600.483 418.079 379.645 344.596 2192.52 60.0926 242.073 251.979 195.536 142.75 306.596 4636.01 957.199 144.132 322.964 148.024 541.333 283.225 4934.37 210.527 61.3715 288.159 410.472 93.2354 933.134 635.308 187.956 447.352 234.582 2797.03 7929.76 323.284 305.006 1420.13 1131.83 488.094 206.587 710.038 1287.37 1585.01 1222.06 2166.75 593.408 84.7357 1348.46 1127.95 948.084 179.862 218.501 204.087 471.841 102.509 125.8 238.197 322.832 410.658 82.3314 408.75 187.693 153.685 212.77 156.62 163.285 174.94 801.242 139.457 2657.45 297.09 2935.81 1161.85 945.573 206.662 233.136 60.1644 133.921 126.062 1773.96 143.558 238.706 91.2375 7456.16 6880.31 60.2772 60.29 76.7391 41.5778 3300.25 114.65 217.597 87.72 60.5343 51.4046 1716.17 6581.36 1577.97 643.735 305.397 61.4854 63.2882 56.1499 595.121 44.3981 1093.56 71.6749 56.3898 3230.44 2137.34 116.272 941.273 118.907 328.326 71.2971 111.66
internal_count=473704 382613 91091 147358 235255 40413 148036 90430 24224 50678 37214 57089 83916 16189 56928 8454 51298 13464 9595 32618 6061 33341 9024 4231 87219 30954 23740 19883 47494 47104 35163 11941 10071 19256 26557 14598 12734 2563 29316 10733 4282 6451 2935 19001 15770 6002 9216 2503 1841 17304 25947 2001 2232 4793 2533 64120 3857 27612 6551 12859 10209 8134 5671 2463 1680 25667 3558 28153 2640 2260 13474 13335 10660 8348 2312 8021 2675 78649 58408 30778 20133 10645 9646 1697 1591 8570 1999 2075 1374 9232 2650 15347 20344 16290 6913 4328 24856 22951 39528 5696 1425 6001 2831 3170 2088 1120 1082 2122 1874 2081 26497 627 3843 2779 1864 1692 1527 10267 273 1096 1138 886 662 1398 21692 4130 654 1493 680 2497 1260 23415 999 267 1291 1870 439 4018 2911 849 2062 1088 13261 38110 1407 1347 6206 5413 2327 984 3297 6023 7539 5807 10320 2585 391 5900 4950 4142 808 1016 925 2192 473 569 1105 1481 1804 361 1905 890 701 974 721 761 813 3438 643 12553 1383 13944 5532 4503 968 1083 255 633 553 8412 645 1109 414 35854 33087 279 284 321 194 15886 529 1008 383 262 232 8102 31936 7657 3086 1463 293 289 253 2874 204 5175 306 244 15555 10154 527 4451 571 1443 327 522
cat_boundaries=0 1 2 3 4
cat_threshold=12576 369688576 544 12288
is_linear=0
shrinkage=0.0723106


Tree=4
num_leaves=227
num_cat=16
split_feature=1 16 16 1 1 1 18 16 19 19 1 1 19 1 1 1 10 18 19 10 1 1 1 1 19 19 1 19 1 19 10 10 1 1 1 1 19 1 1 1 1 1 1 1 1 1 1 19 1 1 1 1 1 1 1 10 19 1 1 1 1 1 19 1 1 1 1 1 1 1 19 1 16 1 1 1 1 1 1 1 10 1 18 9 1 1 19 1 18 19 15 1 19 1 10 1 1 1 1 1 1 1 1 1 1 1 19 19 9 19 1 1 10 1 1 1 1 19 21 1 7 1 1 1 1 1 1 19 1 21 1 1 15 1 1 1 9 1 1 1 1 1 0 21 1 0 19 1 1 1 18 1 9 11 1 0 15 1 9 19 18 1 1 1 21 1 15 21 21 9 19 0 15 19 1 19 19 15 15 0 1 19 15 1 1 15 19 1 21 1 1 1 18 0 19 21 0 11 18 1 18 1 21 15 15 1 19 19 21 11 15 15 1 15 10 21 21 11 1 1 1 11 1 21 1 1
split_gain=26344.6 7050.73 1951.48 1459.89 807.337 738.947 649.305 508.175 373.95 342.173 270.375 220.273 204.784 203.241 143.691 133.091 123.998 118.902 105.403 102.916 91.6877 88.3584 152.458 100.529 83.3297 80.7173 78.5543 76.8653 70.3314 70.318 69.4715 69.3211 66.1034 137.309 65.3924 125.082 56.2451 52.3714 80.1493 51.6792 50.1561 46.6179 46.5069 137.575 46.929 73.3939 60.3148 46.4628 43.3874 81.5003 57.6225 138.587 91.9357 42.4634 42.4239 40.4753 39.3181 38.5205 37.5365 37.8714 36.0029 49.2622 33.2134 32.042 30.6739 43.5205 30.2278 34.5382 29.4652 76.7003 29.4463 29.4234 28.9775 28.6109 29.9588 27.2425 33.1526 26.8239 26.4739 34.1377 26.2754 25.5439 25.1035 24.8491 24.6052 45.4677 23.7187 21.9017 20.1372 18.672 18.4749 17.9282 17.8318 16.5628 15.3096 15.2276 67.7585 28.6548 15.138 14.857 19.8373 17.4295 17.0545 14.8122 58.0938 32.7076 14.1439 13.5911 13.376 13.2867 12.971 12.892 12.8228 11.8216 11.684 11.4443 33.6125 11.1648 11.0407 10.7138 10.7016 13.8101 10.6255 10.4552 9.66608 14.9558 19.8661 11.0196 9.37181 9.36497 9.28086 9.11744 8.66619 8.57931 12.2514 8.32078 8.27562 8.26271 22.6023 19.7579 8.16672 7.58203 9.62504 8.10865 7.26119 7.11063 6.95886 6.69125 15.7576 10.9081 6.30694 6.30505 6.21199 6.09905 6.07333 6.06933 6.03355 5.7659 5.75632 5.67176 6.29395 5.65459 5.64455 5.51479 5.43655 5.39415 5.12316 5.11853 5.0681 4.8672 4.72383 4.6781 4.57638 4.54034 4.43282 4.11774 3.98736 3.74055 3.66255 3.62307 3.61466 3.27656 4.34481 3.23528 15.934 3.21645 3.12026 4.04358 3.02678 3.01201 16.333 2.96978 2.92876 2.92782 2.89684 2.87429 2.86855 3.14518 2.81543 2.77754 2.73304 4.01425 2.6051 2.60231 2.50705 2.4995 2.46732 4.61505 2.40837 2.31161 2.28243 2.20842 2.16458 2.09411 2.04537 2.03819 1.82259 1.80429 1.74017 42.4212 8.3333 1.60741 1.52416 1.03745 0.962176 18.0348
threshold=0.17850000000000002 1.5000000000000002 1.5000000000000002 0.079500000000000015 0.23450000000000001 0.081500000000000017 730.87297712795578 2.5000000000000004 -1.8660699874692452 10.717017879927086 0.25650000000000006 0.11950000000000001 17.345887336614513 0.098500000000000018 0.13550000000000004 0.16550000000000004 0 730.87297712795578 10.717017879927086 1 0.16550000000000004 0.16550000000000004 0.16950000000000004 0.12250000000000001 18.133930012530758 -0.49770528858437041 0.12450000000000001 -4.2585586188175162 0.16950000000000004 -4.7751763499396693 2 3 0.24850000000000003 0.24250000000000002 0.18511500000000003 0.18850000000000003 11.160776709826282 0.11950000000000001 0.10050000000000002 0.12250000000000001 0.11550000000000002 0.16950000000000004 0.18511500000000003 0.19150000000000003 0.19550000000000003 0.19450000000000003 0.20250000000000004 4.5523201029026845 0.33750000000000008 0.30050000000000004 0.25650000000000006 0.24850000000000003 0.25850000000000006 0.17950000000000002 0.23950000000000002 4 22.133930012530758 0.035500000000000011 0.18650000000000003 0.18950000000000003 0.30450000000000005 0.30950000000000005 23.160776709826283 0.12450000000000001 0.17250000000000001 0.17350000000000002 0.24550000000000002 0.24750000000000003 0.16850000000000004 0.16750000000000004 1.5523201029026839 0.035500000000000011 3.5000000000000004 0.11250000000000002 0.11350000000000002 0.16550000000000004 0.16950000000000004 0.25750000000000006 0.16850000000000004 0.16750000000000004 5 0.18250000000000002 576.59095944847707 6 0.17250000000000001 0.17350000000000002 4.1607767098262807 0.14950000000000002 619.53068048596617 27.566781392398529 0.78255434782608713 0.035500000000000011 10.9304583986862 0.035500000000000011 7 0.11950000000000001 0.10450000000000001 0.12250000000000001 0.16050000000000003 0.24850000000000003 0.23450000000000001 0.23650000000000002 0.24250000000000002 0.18511500000000003 0.18650000000000003 0.18250000000000002 7.5876199790869245 7.1607767098262807 8 11.587619979086925 0.086500000000000007 0.17150000000000001 9 0.33750000000000008 0.25450000000000006 0.039500000000000007 0.048500000000000008 -10.0695416013138 10.215300189414881 0.38350000000000006 10 0.14950000000000002 0.18650000000000003 0.038500000000000006 0.23650000000000002 0.24250000000000002 0.24550000000000002 27.259036416852499 0.14050000000000004 9.2301140772651937 0.091500000000000012 0.18250000000000002 1.7784523809523811 0.20250000000000004 0.20550000000000002 0.17450000000000002 11 0.11950000000000001 0.12050000000000001 0.10250000000000001 0.079500000000000015 0.061500000000000006 61555.850000000006 8.3660295110971266 0.071500000000000008 30286.770000000004 -18.599101702783965 0.18511500000000003 0.18850000000000003 0.18250000000000002 701.26967963545292 0.12050000000000001 12 0.18413236241286601 0.10750000000000001 59993.785000000011 0.51754310344827592 0.12050000000000001 13 -2.4476798970973159 760.20593006188335 0.17050000000000004 0.17250000000000001 0.24250000000000002 9.8118559733759465 0.11550000000000002 0.48358571428571434 9.4558417147254357 9.7443467343194161 14 22.695809732511524 77970.255000000019 0.99027777777777792 20.248048753467064 0.23050000000000004 -25.069541601313798 2.4585795420148888 1.2251923076923079 0.62508620689655181 62428.845000000008 0.12350000000000001 10.400898297216033 1.1018465909090911 0.16750000000000004 0.16850000000000004 1.4488194444444447 21.100176174748757 0.039500000000000007 9.7961074989837105 0.039500000000000007 0.048500000000000008 0.17950000000000002 593.64793503010594 57527.785000000011 3.800556891069562 9.5028987857040796 36556.865000000013 0.30412781627263008 644.75237237041176 0.25450000000000006 594.46786053747553 0.11850000000000001 9.6189947223538113 0.70204166666666679 1.1073030303030305 0.19750000000000004 1.16077670982628 -14.751951246532938 8.9049864006113157 0.72013993039785362 0.57881176470588247 0.78468627450980399 0.25250000000000006 0.59462912087912101 15 9.164759153627875 9.4526247630130218 0.2331884149618767 0.27450000000000008 0.27850000000000008 0.26450000000000007 0.31418678685455431 0.059500000000000004 9.9205172210833492 0.16550000000000004 0.16950000000000004
decision_type=2 2 2 2 2 2 2 2 2 2 2 2 2 2 2 2 9 2 2 9 2 2 2 2 2 2 2 2 2 2 9 9 2 2 2 2 2 2 2 2 2 2 2 2 2 2 2 2 2 2 2 2 2 2 2 9 2 2 2 2 2 2 2 2 2 2 2 2 2 2 2 2 2 2 2 2 2 2 2 2 9 2 2 1 2 2 2 2 2 2 2 2 2 2 9 2 2 2 2 2 2 2 2 2 2 2 2 2 1 2 2 2 9 2 2 2 2 2 2 2 1 2 2 2 2 2 2 2 2 2 2 2 2 2 2 2 1 2 2 2 2 2 2 2 2 2 2 2 2 2 2 2 1 2 2 2 2 2 1 2 2 2 2 2 2 2 2 2 2 1 2 2 2 2 2 2 2 2 2 2 2 2 2 2 2 2 2 2 2 2 2 2 2 2 2 2 2 2 2 2 2 2 2 2 2 2 2 2 2 2 2 2 2 2 9 2 2 2 2 2 2 2 2 2 2 2
left_child=1 3 10 19 7 17 8 12 15 11 18 13 42 55 56 37 24 25 32 27 31 23 68 112 48 93 180 71 78 72 -28 120 33 34 81 122 77 38 130 157 73 94 53 58 45 -45 -46 132 49 50 51 -6 -52 206 -37 110 137 -29 -44 -60 214 -62 75 -41 161 -66 -35 -68 69 -23 83 -1 133 80 -75 128 -77 -12 79 -17 -15 191 166 -57 150 -86 87 -8 -79 147 114 -21 167 -3 179 96 108 151 -99 100 103 -102 -103 105 -105 -84 -72 141 -33 159 145 198 153 181 193 196 -117 -118 192 124 188 136 -36 -109 -26 127 -127 -126 -16 -91 -7 155 158 177 -135 162 -122 139 -139 -10 189 142 143 -93 164 -5 -133 149 -149 -14 -30 -97 -131 -13 -98 -55 -90 -39 -18 -31 194 -24 -113 -160 -143 -40 -20 208 195 -125 -27 -165 -154 -150 -136 -114 -144 -9 -112 203 -25 185 -183 -96 -185 -49 222 -188 210 -95 -191 -2 -38 -34 -161 215 209 -198 -43 217 201 -42 -116 -22 -50 -179 207 -4 -59 -73 -11 -83 -92 -137 -51 -134 -171 -101 220 -220 -158 -146 -94 -190 -64 -226
